3000 100
<pad> 1.000975 -0.906171 1.554563 1.072800 -0.106318 0.495016 -0.185730 1.000753 1.498797 -1.130213 1.181163 -0.907569 0.667814 -1.162246 0.771745 0.191063 0.570949 -0.215638 -1.807101 -1.737413 1.085570 -0.249109 0.065319 -0.065702 0.499532 -0.451882 -0.707874 0.437498 0.585259 1.289843 -2.447578 -1.787330 -1.284677 1.331454 -0.300804 1.935444 0.980281 -1.240227 0.628851 -0.688414 0.560565 1.441740 0.869830 1.544465 -0.732172 0.230928 0.227834 -2.032029 1.721596 0.981226 -0.488859 0.335792 -2.008526 -0.160316 1.334131 0.040550 1.585495 -0.939497 -0.149510 0.412743 0.614797 -0.300878 -1.426474 -1.120057 -0.301742 -0.013374 -0.828826 -2.049856 -1.181059 1.698658 -0.311122 0.885563 -0.683275 -0.964611 0.899337 0.312448 -0.397117 -1.021376 -0.486651 -1.053387 -0.283905 0.576916 -1.008694 1.326476 -0.646690 -2.335720 0.599533 -0.540688 0.719995 -1.139139 0.051459 0.581336 0.673161 2.084551 -0.389119 0.607732 0.073273 -0.919456 -0.831944 1.045378
<start> 0.112214 -0.000434 -0.248435 0.106082 0.112624 0.027969 0.077187 -0.307407 0.016806 -0.070724 0.111344 0.089146 0.008075 0.116170 0.061914 -0.001488 -0.264719 0.030818 -0.155930 -0.023212 0.021556 0.065568 -0.172101 -0.276947 0.009266 -0.042976 -0.094171 -0.024181 -0.110910 -0.392998 -0.009628 0.207381 -0.081356 0.139338 -0.026310 -0.279473 -0.117597 -0.456052 0.049487 0.137572 0.074883 -0.073411 0.288414 -0.053775 -0.117855 0.680633 -0.014389 0.007817 -0.087106 0.276593 0.058003 0.108784 0.111175 -0.232398 -0.417103 -0.030886 0.180354 0.078720 -0.049048 0.213215 -0.069918 -0.056802 -0.024474 -0.271035 0.177931 -0.309513 -0.066271 -0.006372 -0.022295 -0.110390 -0.187282 0.117095 -0.027261 -0.087219 -0.037016 0.023272 -0.005153 -0.439415 -0.167635 -0.138160 -0.000102 -0.039691 -0.005645 0.973319 0.252389 -0.072307 0.111782 0.038334 0.169547 -0.050190 -0.308451 0.043637 0.021037 0.247287 -0.011112 0.104347 -0.030886 0.163874 0.176430 -0.000231
<end> -0.200560 -0.661670 1.199177 -2.319108 -1.405354 -0.106218 -0.393311 -0.272990 0.143592 -1.187369 0.603363 1.491811 -1.372608 -0.576161 1.363325 -2.944609 -0.300321 0.008718 1.033639 0.204157 -0.696777 0.176887 0.948567 1.824242 -0.330910 -1.161496 -0.094391 -0.267154 0.200926 1.948306 0.156817 0.638493 -1.104350 0.997791 1.288345 0.251595 0.040009 -1.202237 -0.074022 -0.729207 -2.073742 1.365919 -0.004597 -0.125971 0.236115 -0.137080 -0.124257 1.469117 -1.885956 0.250388 -0.888361 -0.365633 0.382065 -0.840647 1.183690 -1.255885 1.676959 0.776308 -0.625336 -1.137618 0.637623 -0.139916 -0.953737 0.434034 -0.133170 -1.717417 -1.115284 -0.762023 -0.184819 1.300972 1.165322 -0.134023 -0.707314 0.071334 -0.668502 0.584523 -0.807165 0.746059 -0.911781 1.557650 0.329571 0.946728 0.413018 -0.786481 0.025156 0.369118 -1.422204 0.904616 1.326453 -0.001730 0.971642 0.307020 1.382304 1.936051 -0.390781 0.020505 -1.072631 0.402653 -0.726753 0.714994
<unk> -0.005373 -0.017299 0.088504 -0.083147 0.030338 0.028672 -0.015104 0.049330 0.053151 -0.007222 -0.031612 0.044415 -0.073900 0.001489 -0.018408 0.060102 0.074190 0.047679 0.080781 0.043126 -0.005551 0.017855 -0.046530 0.095692 -0.056691 0.037581 0.008498 0.085231 -0.096396 -0.036420 -0.011503 -0.008028 -0.034581 -0.009261 0.038006 -0.063473 0.038142 -0.204990 0.023081 0.023520 -0.013161 0.025256 0.198859 -0.006773 -0.043076 0.229394 -0.081413 -0.011958 -0.013652 -0.011836 0.057293 0.073021 -0.188672 0.129623 0.028354 -0.062900 -0.135454 0.079408 0.001476 -0.035515 -0.022103 0.079013 -0.083259 -0.183184 0.029905 0.017823 -0.067122 0.021991 -0.049612 -0.003265 -0.034783 -0.004067 -0.032693 0.003053 -0.077627 -0.005680 -0.014653 0.017242 -0.258618 0.017934 -0.026004 -0.016363 0.047284 -0.373186 -0.061568 0.012501 -0.041056 0.051452 -0.070433 0.014772 -0.090731 0.024527 -0.082832 0.009403 0.048594 -0.024571 0.057753 -0.146265 0.067019 -0.011828
the -0.043408 0.039332 0.020772 0.238419 0.015597 0.009317 0.007306 0.004004 0.040776 -0.092286 -0.011206 -0.067717 -0.022629 -0.024907 0.003578 -0.052874 -0.116763 -0.036748 -0.066804 -0.043343 0.076020 -0.033240 -0.011894 0.044161 0.142960 0.153391 0.017447 -0.020579 -0.043972 -0.193583 0.033998 -0.045512 0.047153 0.074954 0.126569 -0.089995 -0.030738 1.760544 0.040746 -0.146818 0.011876 -0.032107 0.103102 0.010029 0.077420 -0.034437 0.043254 0.016689 -0.073836 0.102588 0.060501 0.068431 0.017901 -0.008850 -0.043107 -0.001150 0.008994 0.008774 0.000251 0.055400 0.007039 -0.183989 -0.017453 0.183592 0.070289 -0.109655 -0.034593 0.004392 0.051378 0.009387 -0.028659 -0.053671 -0.108627 -0.012026 0.036819 0.012069 -0.048054 0.263619 -0.043736 -0.032549 -0.019693 -0.078425 -0.038276 0.077991 0.132709 -0.068641 -0.122162 -0.051607 0.016058 -0.002567 0.101479 0.061287 0.035905 0.087675 -0.096392 -0.048874 0.050718 -0.023053 -0.022156 -0.013208
and 0.058114 -0.028645 0.001600 -0.103186 0.030670 0.100431 -0.005243 0.026277 -0.053597 0.040610 0.040684 0.047046 -0.055743 0.050058 -0.088419 0.027431 -0.023669 -0.099061 0.066196 -0.115507 0.097134 -0.027876 -0.015340 0.185453 0.003094 0.029945 0.025028 0.003234 0.146365 -0.299632 0.078549 -0.034578 -0.135053 -0.011060 -0.027941 0.112679 -0.022410 -0.035435 -0.068820 0.072466 -0.080480 0.043535 0.017940 0.016504 0.028860 0.529447 -0.056987 -0.014459 0.124002 -0.075457 0.014427 -0.161720 0.117161 -0.476821 0.143362 0.037512 0.544905 0.118500 0.004727 -0.011464 0.130957 -0.184069 -0.006970 0.409214 -0.034629 0.008880 0.053177 0.101604 -0.014714 0.016228 0.026747 -0.013058 -0.098052 0.034878 0.013538 -0.021707 -0.004680 -0.124748 0.132794 0.040290 0.028050 0.008500 0.028114 0.403217 0.102548 -0.187494 -0.004822 -0.077983 -0.029345 -0.123263 -0.220010 0.017277 -0.114583 -0.025307 0.027626 -0.070264 -0.085032 0.088717 0.090177 -0.044175
of -0.003543 0.008310 -0.108221 0.035779 0.102755 -0.048653 -0.009166 -0.034172 0.067915 0.022097 0.000420 0.067997 -0.077420 -0.117857 0.155744 -0.154006 0.168846 -0.008470 -0.051007 -0.116681 0.025037 -0.013940 -0.026554 -0.358051 0.075017 -0.020206 0.013310 -0.139481 0.063442 0.452989 0.049590 0.028930 0.064729 0.098747 -0.060193 -0.414145 0.031950 -0.879210 -0.025285 -0.204793 0.171382 0.109285 0.003143 0.037584 0.037902 -0.036714 0.058515 0.003076 -0.027522 0.135622 0.042994 0.349217 -0.002074 -0.235080 0.165368 0.014797 -0.306132 0.038513 0.137992 -0.044794 0.025345 -0.059158 0.098929 1.393381 -0.017581 0.127260 0.061087 -0.035285 0.109119 0.044808 -0.095881 0.082018 -0.041623 -0.124893 -0.047413 -0.032893 -0.031919 -0.561090 0.198198 -0.051672 0.029066 0.004006 -0.070612 0.270155 0.058193 -0.118219 -0.071589 -0.116817 -0.000300 0.179549 0.422178 -0.002847 0.023867 0.058497 0.050838 -0.031169 -0.051512 0.085984 0.026109 0.026769
to 0.038369 -0.036968 -0.033925 -0.040051 -0.262444 -0.027013 -0.076624 -0.022880 0.058823 -0.071961 -0.188038 0.148069 0.212361 -0.225598 -0.048724 -0.004562 0.051936 0.083201 0.057493 0.043540 0.056092 -0.044474 -0.086381 0.491184 0.137069 0.082207 -0.059769 -0.037002 -0.091975 -0.135412 -0.015851 -0.013278 0.027425 0.003509 -0.092011 0.182945 -0.074379 -0.342245 0.106210 0.245926 -0.151552 0.013560 -0.424356 0.042994 -0.006680 -0.140189 0.043635 -0.029195 0.023524 -0.165902 -0.055980 -0.373314 -0.533318 0.071709 0.087604 0.037771 -0.172899 0.136969 0.041391 0.011580 0.101928 0.347655 0.000308 0.852598 -0.113903 -0.314437 -0.058991 0.035617 0.082724 -0.033816 0.051986 -0.031640 0.053392 0.043274 -0.009387 0.034763 0.049771 -0.068832 -0.371190 -0.042821 -0.006088 0.021271 -0.024994 0.930547 0.031125 0.138191 0.146668 0.003640 0.001784 -0.118083 -0.145838 -0.053500 0.006313 -0.099515 0.000871 -0.095569 -0.049031 -0.084385 0.011411 0.060091
a 0.078067 -0.024552 -0.068389 -0.578099 0.041747 0.064043 0.069948 0.102996 0.030554 -0.007465 -0.041355 0.060606 0.153613 -0.267295 0.046975 -0.007740 0.445858 -0.039204 -0.065880 -0.076704 0.068117 0.032675 -0.097385 -0.144452 0.006041 -0.113714 0.002290 -0.063600 -0.021259 0.064062 0.104481 -0.042550 0.067954 -0.022307 -0.059658 0.388838 0.101583 1.623330 0.005455 -0.031358 0.024127 -0.164346 0.051274 0.032736 -0.033336 -0.323153 0.030317 0.089272 0.084841 0.302612 0.021468 0.135127 -0.017645 0.404760 0.034081 0.014241 0.453438 0.267698 0.272611 -0.053890 -0.045931 0.119954 -0.075662 0.114238 -0.130222 0.163240 0.041067 0.083962 0.030461 0.021977 -0.073279 0.078364 0.069352 0.051559 0.147237 -0.007625 -0.027057 -0.357528 -0.262179 0.062140 -0.006662 -0.051761 0.016909 0.217705 0.154671 0.048060 0.076963 0.077782 0.061314 -0.120947 -0.303392 -0.026855 -0.016035 -0.117269 0.065545 -0.043467 -0.008187 0.030786 0.056618 -0.012323
in -0.056258 0.081082 0.000643 0.298756 -0.024866 -0.158701 -0.072174 0.135974 -0.066414 -0.222196 0.073473 -0.055965 0.165196 0.258007 -0.133131 -0.099437 0.124799 0.003034 0.053967 -0.025385 -0.075155 -0.145101 -0.092289 -0.282633 -0.056552 0.095455 0.091171 0.062843 0.372974 0.026583 -0.103855 0.088633 -0.131373 0.053871 0.033544 0.543801 -0.102719 -0.645662 0.087983 -0.289083 -0.300233 0.006905 0.243469 0.051084 0.071356 -0.015374 0.235279 -0.073819 -0.101693 -0.152983 -0.051169 0.135954 0.086019 0.124795 0.071055 -0.024086 0.044606 -0.021466 -0.346737 0.031094 0.065299 -0.203823 0.144974 0.984078 -0.204787 0.292716 0.004612 -0.224372 0.133443 -0.082042 -0.067607 -0.076666 -0.029273 -0.118830 -0.071501 0.074327 0.146812 0.054727 -0.037478 0.110078 0.077178 -0.039527 0.038587 0.358902 -0.232788 0.000082 0.162917 0.124377 -0.081395 0.045744 -0.219102 0.285190 -0.163371 0.066390 -0.045045 0.165280 0.050817 0.019437 0.068230 0.060579
i 0.087228 0.039167 0.130963 0.135887 -0.011565 0.130499 0.031480 -0.038176 -0.004449 0.158162 0.087104 -0.185323 -0.279140 0.241570 -0.245360 0.028103 0.390985 -0.058052 -0.009306 0.076605 0.050389 -0.043488 -0.101388 -0.081659 0.126926 0.111133 0.072785 0.050804 0.114004 0.179971 0.066979 -0.023759 0.052970 -0.146846 0.032357 0.360158 0.117231 0.253448 -0.006513 0.874011 0.158203 0.158034 -0.210967 0.049730 0.043312 0.118397 -0.224052 -0.047966 0.041449 0.040449 -0.188732 -0.235336 0.121339 0.060543 0.042494 -0.097295 -0.595228 -0.121925 0.160252 -0.001298 0.069378 0.175093 -0.078242 -0.103747 -0.307368 0.857537 -0.056704 -0.000005 0.005078 -0.011210 -0.134967 -0.204658 0.203247 -0.111147 0.074366 0.224261 -0.023803 0.132011 0.137681 -0.159428 0.017163 -0.075075 -0.047250 0.705791 -0.051477 -0.080273 -0.212002 0.138101 0.215703 0.044865 0.338620 -0.188423 -0.044604 -0.032987 0.085558 -0.157820 -0.002946 -0.012350 -0.164018 -0.011215
he -0.016756 -0.160167 -0.128428 0.041765 0.087809 -0.063437 0.020392 -0.000591 0.048891 -0.233995 0.033234 0.025933 -0.002086 -0.218938 0.244104 -0.013422 0.312407 -0.041252 -0.047370 0.013169 -0.190235 0.017921 0.099241 -0.177127 -0.071090 -0.055112 0.150081 0.146971 0.155698 0.614473 -0.056486 -0.076506 -0.165125 0.043807 -0.052792 0.331531 0.113176 0.302294 -0.067268 0.580744 -0.073531 0.123043 -0.168169 -0.017696 -0.027112 0.614168 0.169706 0.127797 -0.073696 0.251270 0.049241 -0.414427 0.115292 -0.014757 0.119867 0.043325 -0.481686 0.039901 -0.029731 0.035044 0.060704 -0.015758 0.167155 -0.275491 0.074905 0.605236 0.050919 0.041472 0.012981 -0.000764 0.223738 0.006743 -0.187754 0.015388 -0.000311 -0.038938 0.207925 0.340543 0.028804 0.117843 0.074605 0.127913 0.231616 0.782522 -0.057890 0.054056 0.072497 -0.165389 0.186064 0.159397 0.366874 0.193433 0.049923 0.073483 -0.085168 0.000923 0.108941 0.097542 -0.066998 -0.111784
that -0.026529 0.048603 0.117307 0.027525 -0.181196 0.060145 0.072784 -0.107365 -0.066692 0.005488 0.128866 -0.251831 -0.102388 0.054469 -0.099744 -0.201109 -0.066235 -0.168273 -0.070116 0.182428 -0.053101 0.249749 -0.072374 -0.073205 0.083889 0.018238 -0.220746 0.069751 0.151327 -0.013350 -0.077235 -0.071050 -0.131299 -0.034896 -0.043877 -0.078922 -0.113733 0.043078 0.103835 -0.415061 0.252948 0.069941 0.195674 -0.022251 -0.218830 0.132131 0.090089 0.009782 0.061136 -0.364463 -0.034941 0.210413 -0.196837 -0.111067 -0.236189 -0.047657 0.157054 -0.173008 -0.106998 -0.091811 0.135710 -0.032138 0.067609 -0.187764 0.179942 0.214897 0.351728 0.143817 0.197845 -0.020762 -0.005018 0.068939 -0.058026 0.127769 0.094919 -0.017060 -0.192664 -0.445570 0.039348 0.382256 -0.068954 -0.023245 -0.227022 0.668373 0.322604 0.169341 0.038199 -0.031089 0.136550 -0.148525 -0.299577 -0.270605 0.114848 0.083600 0.098996 -0.059492 -0.204415 -0.333753 0.072888 -0.033703
his 0.012474 0.050562 0.084257 -0.545308 -0.147001 -0.064986 -0.022337 -0.154607 0.020374 -0.080155 0.017646 0.036858 0.056440 0.004116 0.029992 -0.020291 -0.036040 0.109553 -0.064294 -0.055647 -0.143467 0.023032 -0.054222 0.158904 -0.085959 -0.058052 -0.016138 0.082578 0.148830 0.207902 0.026799 0.002820 -0.153460 0.006536 -0.091027 0.248654 -0.093250 1.522880 0.025923 -0.062319 -0.332784 0.076353 -0.099150 -0.066017 -0.016928 -0.024652 0.136421 -0.098800 -0.117442 -0.239899 0.000826 0.099051 0.041729 -0.705632 -0.037813 -0.116179 -0.378799 -0.162613 -0.131137 -0.081566 0.144658 0.151161 0.114074 0.116038 0.003666 -0.200219 -0.016973 -0.241203 -0.049584 0.100948 0.070430 0.067158 -0.030943 -0.048448 0.216620 0.153418 0.053935 -0.283362 0.309658 0.049063 -0.001709 -0.030616 0.023982 -0.184323 -0.267323 0.102300 -0.005387 -0.096757 0.149725 -0.009464 0.201977 -0.142225 -0.179170 0.000814 -0.051563 -0.003387 0.067581 0.133073 0.059731 0.083963
was -0.031250 -0.178860 0.041015 0.135777 -0.186943 -0.102577 -0.165072 0.074705 0.026991 -0.071619 -0.145441 0.032964 0.126638 -0.049882 -0.059759 -0.049146 0.926356 -0.125852 -0.214324 0.002055 0.023902 -0.051629 -0.079812 -0.091241 -0.007772 0.025594 -0.190333 -0.093389 0.011114 -0.142753 -0.036674 -0.021739 0.189215 0.170015 0.070388 0.034749 -0.182900 -0.353836 -0.108195 -0.420517 0.004458 0.041182 -0.079923 0.036287 -0.031138 -0.382376 -0.018201 -0.051782 -0.155925 0.237780 0.121559 0.221336 0.041264 -0.624352 -0.023184 0.092988 0.935828 -0.225687 -0.124238 -0.000115 -0.103855 0.129097 -0.174882 0.043576 -0.048913 -0.289723 -0.133085 0.031646 0.213342 0.138855 0.143629 0.008028 0.114732 0.042125 0.006962 0.061798 -0.238225 0.630185 0.191676 0.037292 -0.099970 -0.032840 -0.087903 -0.360211 0.042406 -0.153833 -0.012534 0.135109 -0.076997 0.016141 0.621454 0.193088 -0.020782 0.165614 0.018429 0.118341 0.100297 0.075858 0.160520 0.033638
it 0.080914 0.059282 -0.123044 -0.047133 0.328179 0.057093 -0.237718 0.128135 -0.083022 0.150114 0.159428 -0.201430 0.159783 -0.254329 -0.202164 -0.059340 -0.398195 -0.060104 0.111880 -0.007988 -0.030530 -0.074528 0.093516 -0.274202 0.091996 -0.087985 0.102190 0.121727 0.145517 0.239257 -0.075904 -0.105260 0.105181 0.092851 0.002597 -0.006660 -0.128640 0.406284 -0.002393 0.444242 -0.282732 -0.184409 -0.161309 0.068496 -0.154441 0.224868 0.129898 0.058638 0.056048 -0.180872 -0.129773 -0.022484 -0.275702 0.508019 0.460757 0.111065 -0.169990 -0.127474 0.029199 -0.090931 0.152131 0.158592 0.088897 -0.652640 0.289308 0.263383 0.092090 0.083442 -0.175460 -0.095910 0.213088 -0.077084 -0.145838 -0.129447 0.042588 -0.095453 -0.028172 0.121143 -0.130648 -0.133013 -0.031853 0.167268 -0.134564 0.452567 -0.206801 -0.043802 0.129372 0.081079 -0.219770 0.116825 0.262002 -0.284497 -0.049628 0.039649 0.084843 0.147212 0.062451 0.025943 0.105369 -0.049159
you -0.097953 -0.038203 -0.010697 -0.243045 -0.261343 -0.280162 -0.078000 -0.082221 0.035538 0.040427 -0.377618 -0.087043 0.001534 0.004244 -0.151415 0.133229 0.194571 -0.025144 -0.000912 0.148735 0.106128 0.144704 -0.090457 -0.040903 -0.193692 0.703272 -0.222781 0.080882 0.314537 -0.591217 0.190065 0.016065 -0.106991 0.066033 0.078214 -0.240973 -0.074986 0.289925 0.061400 0.911992 -0.010182 0.025865 -0.170890 0.071783 0.112939 -0.121382 0.026777 0.045463 -0.296717 0.131338 0.206691 0.062248 -0.180042 -0.082937 -0.096461 0.078828 -0.226212 0.080584 0.072806 -0.090485 -0.205378 -0.033140 0.040949 -0.188552 -0.237523 0.895681 -0.130970 0.000480 -0.201772 0.073569 -0.269914 0.015838 0.095143 0.019049 -0.036452 -0.172382 -0.065177 -0.042271 0.313470 0.250508 -0.068417 -0.055828 0.116209 0.244072 -0.083968 0.007820 0.144296 0.065673 -0.532181 0.063091 0.124766 -0.166444 -0.127216 0.154810 0.128341 0.156946 0.070298 0.104656 -0.008747 0.057554
with -0.091656 0.303549 -0.180959 -0.100821 0.051948 -0.114941 0.012808 -0.140780 -0.003174 0.184879 0.326710 0.086294 0.031324 0.078225 -0.058478 0.005642 -0.137107 -0.142722 -0.111026 0.092244 0.118395 -0.053984 -0.087885 0.436166 0.055994 0.004461 -0.087121 0.041370 -0.052545 -0.087036 0.102904 -0.050769 0.091544 -0.115910 0.146755 0.188660 0.013489 -0.516560 -0.092642 -0.559399 0.410648 -0.211200 -0.067626 -0.094841 -0.081456 0.201942 -0.217589 0.016272 0.057605 0.031672 0.071989 0.370223 0.071568 -0.119500 -0.290582 0.042172 0.022396 0.167077 -0.084981 0.045342 0.142305 -0.100603 0.021030 0.786337 0.088429 -0.067956 0.283116 -0.074186 -0.291908 0.180105 -0.245692 0.106692 -0.036680 0.121830 -0.023941 0.072948 0.359945 0.434806 0.028428 -0.109666 0.285212 -0.042389 -0.012284 0.420242 -0.495986 0.115479 0.019564 -0.030093 0.161220 -0.022871 0.370002 0.032739 0.133991 -0.009168 -0.174805 0.290710 -0.192485 0.237888 -0.086373 -0.088042
is -0.088620 0.066705 -0.156330 0.174484 0.019640 0.090440 0.011170 -0.094414 0.002448 -0.120013 0.113192 -0.153763 -0.047561 -0.095123 0.275201 -0.049350 1.141445 -0.043865 0.119996 -0.033521 -0.165136 0.050022 0.181165 -0.062652 0.006798 0.030543 -0.244950 0.002944 0.045515 -0.265058 0.056578 -0.053847 -0.017230 0.063429 -0.090768 -0.212939 -0.071268 -0.363277 -0.072082 -0.201104 -0.375514 -0.034126 -0.058010 -0.041036 -0.050279 -0.489815 -0.064850 0.103948 0.037968 0.080327 -0.009288 0.309922 0.151921 -0.557500 -0.094958 -0.086537 0.980344 -0.171273 -0.036432 0.067146 -0.062840 0.166029 -0.180318 0.443677 0.072645 0.028540 -0.123907 -0.131217 0.181623 0.012611 0.110734 0.007903 0.072625 -0.132411 0.005784 0.160689 -0.138596 0.756742 0.142033 -0.083546 0.000609 0.149511 0.051872 -0.313007 -0.205764 -0.075196 0.120936 0.065605 -0.031587 -0.105415 0.634023 -0.069070 -0.017860 -0.154854 0.012843 -0.161777 -0.121225 -0.092103 0.046036 0.116416
as -0.094003 -0.136767 0.231641 0.121184 0.363034 0.186457 0.131527 -0.203611 0.026698 -0.048468 -0.234498 -0.014892 0.369891 0.376708 0.196275 0.161244 -0.078709 0.137063 -0.119657 0.119273 -0.177483 -0.062235 -0.080674 0.015367 0.231781 -0.107163 0.091328 -0.110736 0.025590 -0.206988 0.048683 -0.173369 0.275917 -0.113558 -0.029831 0.079529 0.122321 -0.291680 0.008467 -0.365369 -0.181717 -0.009823 0.116538 0.008460 -0.019027 0.109195 0.084817 0.100688 -0.143130 -0.175936 -0.122370 0.230166 -0.072734 0.002755 -0.283278 -0.339334 0.312496 0.212999 0.385074 -0.034167 0.110475 -0.050211 -0.040476 -0.241769 0.276792 0.019896 0.317272 0.369194 -0.144906 0.197594 0.156466 0.174162 0.158797 -0.121255 -0.076449 -0.085785 0.301930 -0.247949 0.216891 0.018742 0.079276 0.126886 -0.177428 0.364935 -0.251308 0.139678 0.295320 -0.059401 0.022895 -0.088338 0.077774 0.208513 0.219104 -0.016505 0.131709 -0.188272 0.123091 0.334543 -0.011375 -0.062524
not 0.064434 0.013118 -0.011076 0.158414 -0.297406 -0.191290 -0.032785 0.074114 -0.120294 -0.109402 0.225466 -0.220609 -0.113672 -0.057334 -0.300342 0.317980 -0.453860 0.251696 -0.146480 -0.119177 0.217703 -0.253354 0.254420 0.179601 0.013933 -0.264156 -0.098009 -0.199271 -0.249652 -0.311604 0.041150 0.135218 -0.048464 -0.068998 0.087042 -0.192935 0.028059 -0.096608 0.009543 -0.216666 -0.226712 0.072374 -0.521570 -0.089088 0.053768 -0.140378 -0.030204 -0.181201 0.022526 0.260117 -0.132375 0.429380 -0.521039 0.125755 -0.095617 0.025209 -0.122793 0.407922 0.271169 -0.130734 -0.041440 0.096853 0.000660 -0.454742 -0.199722 0.548450 -0.259669 -0.000774 0.157843 0.159363 0.143023 -0.046712 -0.001139 0.458870 0.057896 0.050651 0.110667 -0.451958 0.413066 0.030143 0.083113 0.020278 0.089866 0.427674 -0.321448 0.121791 0.205647 0.120520 0.194177 0.358861 -0.211503 0.446564 -0.138251 -0.141056 0.032301 -0.140433 -0.097954 -0.074745 -0.153113 0.013752
for 0.019710 0.032302 0.027611 -0.175335 0.110695 0.091777 0.463087 -0.090092 0.243082 0.003017 0.118780 0.049971 0.165279 0.187480 -0.108057 0.063092 -0.345806 -0.219322 -0.069054 -0.227864 -0.255109 0.188068 0.311427 0.113664 0.058077 -0.006638 -0.129457 -0.081989 -0.217215 0.110681 0.057602 -0.106183 0.121226 -0.089663 -0.128310 0.068790 -0.006927 -0.619781 0.063583 -0.319825 0.343477 0.124331 0.317555 -0.049287 0.296053 -0.174800 -0.055696 0.206003 -0.443655 0.170505 -0.100446 -0.080111 -0.335414 -0.059579 0.277558 0.250594 0.165347 -0.255044 -0.096616 0.004128 0.189488 0.048368 -0.015546 0.567601 -0.189610 0.130109 0.077468 -0.032797 -0.083543 -0.084686 0.071961 -0.113663 0.195959 -0.096926 -0.022341 -0.026059 0.272733 0.024609 0.034731 -0.092239 -0.348842 0.047766 0.189836 0.514674 -0.081738 -0.010989 0.030749 0.040246 -0.065271 -0.309652 0.054948 -0.137005 -0.185567 0.128587 -0.114875 -0.218867 -0.031609 -0.010636 0.044722 0.068341
had 0.156424 0.140013 -0.126242 -0.134608 0.121679 0.140461 0.008698 -0.138170 0.300110 0.071696 -0.142156 0.007915 -0.042936 -0.010906 0.091900 -0.105175 0.401852 -0.004803 -0.020456 -0.005189 0.134503 -0.067216 0.063979 -0.762515 0.040205 0.159416 0.082952 -0.225960 0.038472 -0.326586 0.015728 -0.038141 -0.093633 -0.122307 -0.156037 0.526152 -0.034423 -0.579880 -0.120578 -0.804312 0.073504 -0.124348 0.141510 0.113482 -0.061424 -0.583937 0.040225 0.089095 -0.107740 -0.319978 0.036344 -0.220079 -0.213632 -0.933369 0.095605 -0.018273 0.098275 -0.096156 0.394153 0.005986 -0.042579 0.173920 0.160412 -0.066401 -0.264119 -0.613474 0.044411 -0.030497 -0.217268 0.001067 0.012469 0.030971 -0.010671 0.247109 0.071800 0.024516 -0.055392 1.044214 0.106533 0.006297 0.304521 0.179855 -0.133883 0.201694 -0.040470 -0.026119 0.081201 -0.022210 0.001644 0.124602 -0.036205 -0.018252 -0.187847 0.093243 0.106884 -0.040300 -0.164113 0.298664 -0.136417 -0.103356
but -0.074588 -0.032055 -0.043998 -0.069259 -0.082355 -0.159189 0.035491 -0.081828 0.005365 -0.039266 -0.017521 -0.023649 0.155769 -0.096156 0.160627 -0.099287 -0.009644 0.222603 -0.088432 -0.108834 0.110140 0.045517 0.092061 -0.102124 0.121286 0.099161 -0.079491 -0.056050 0.027701 -0.182691 -0.134069 0.018483 -0.157417 0.101730 0.144648 0.029715 0.091952 -0.311908 0.095496 -0.054713 -0.018238 -0.003121 0.260246 -0.052632 0.014272 0.204271 0.047874 0.078919 -0.014213 -0.102850 0.011782 0.058967 0.146061 -0.418455 0.117785 -0.035690 0.318549 0.028341 0.054389 0.021058 0.128799 -0.065269 0.158561 -0.096320 0.170431 -0.113459 -0.180113 -0.023701 -0.067313 0.126535 0.009174 0.019086 -0.067888 -0.210593 0.002703 -0.082010 -0.227768 -0.112675 0.029422 -0.136264 -0.073934 -0.097183 0.041128 0.581498 0.154578 -0.249855 0.077974 -0.010585 0.179874 0.024495 -0.170612 -0.034668 -0.052978 -0.215699 -0.044190 0.271653 -0.130247 0.147343 -0.100479 -0.162454
at -0.064634 -0.198401 0.216919 -0.375467 -0.005869 -0.127975 -0.164024 0.327327 -0.109155 0.065447 -0.090952 -0.193613 0.359529 -0.068162 -0.478241 0.058447 -0.241009 -0.014417 0.088143 -0.075852 -0.005888 0.028114 -0.066592 -0.329710 -0.138166 0.096085 -0.006599 -0.194740 -0.720043 -0.079591 0.279630 -0.127528 -0.146666 0.072498 0.003234 0.428560 -0.107614 -0.566153 0.195780 -0.207552 0.340313 -0.043192 -0.162916 0.038767 0.065514 -0.022144 0.082383 0.117926 -0.213078 -0.276382 0.254807 0.008294 0.628272 0.243092 0.129064 -0.112884 -0.191293 -0.132506 -0.090241 0.028780 0.091993 -0.282988 0.049285 0.568874 0.235917 -0.096174 0.253348 -0.348985 0.130179 0.059517 0.184297 -0.075999 0.516628 -0.101895 0.073354 -0.125801 -0.403501 0.159313 0.113028 -0.007187 0.109230 -0.051698 -0.064118 0.577101 0.140265 -0.505582 0.451271 0.039287 -0.093408 -0.187368 0.414782 0.160119 0.117595 -0.054946 0.046642 -0.338030 0.218812 0.066488 -0.104448 0.249469
be 0.110122 0.233485 -0.136194 0.052478 0.020244 0.092870 0.012135 -0.044344 0.057796 0.129067 0.057519 -0.207500 0.358657 -0.305947 0.006375 0.000905 -0.177075 -0.076646 0.077080 -0.351154 0.038131 -0.261197 -0.121792 -0.435964 0.207491 -0.130719 -0.414960 0.085925 -0.041959 0.812168 -0.027652 -0.168456 0.061257 0.063525 0.036045 -0.095764 -0.098891 0.214730 0.096477 -0.058066 -0.056629 0.157518 0.144120 0.051319 0.219089 0.271905 -0.096402 0.050611 -0.020653 0.014507 0.244805 -0.013262 0.102347 -1.076362 -0.384179 0.037119 0.692428 0.018508 0.067510 0.033605 -0.008943 -0.325411 -0.220859 -0.815400 0.254722 1.447413 0.085418 -0.160487 0.023540 0.239536 -0.192501 0.136363 0.305207 -0.010732 -0.159855 -0.042064 0.034685 0.495569 0.182261 -0.125994 -0.189656 -0.253416 0.146242 -0.520098 -0.126379 0.040211 -0.094973 -0.078488 -0.064389 -0.290184 0.246007 0.146470 0.132694 -0.250466 0.039948 -0.032461 -0.097545 0.380587 0.112000 0.046992
on 0.100291 0.040090 0.208922 -0.225298 -0.016014 0.004148 0.026957 -0.076411 -0.113464 0.039635 0.002446 0.200825 -0.030420 -0.197273 0.050278 0.308603 -0.418678 0.009504 0.079927 0.035771 0.121072 0.096453 0.038587 -0.255998 -0.022853 0.188372 0.285552 0.013922 0.029185 -0.130240 -0.236322 -0.063860 -0.052517 0.036099 0.112453 0.696543 0.195226 -0.681851 0.079976 -0.309748 -0.068734 -0.285463 -0.110772 0.034308 0.066455 0.242301 -0.080938 0.057704 0.005896 0.278541 -0.049346 0.273884 0.182360 0.104567 -0.224268 -0.314684 -0.025441 -0.414084 -0.201316 0.042233 -0.066689 0.120528 -0.022512 0.925426 0.253137 0.168765 -0.104874 0.297057 -0.035732 0.178108 0.016563 -0.148506 0.234052 -0.181932 -0.017916 0.238121 0.008072 0.166195 0.167969 -0.036135 -0.456605 -0.012518 0.222483 0.317995 0.141775 -0.230063 -0.260487 0.088192 0.185224 -0.376227 -0.157888 0.174111 0.132735 0.014592 0.132982 0.137838 0.165425 0.031890 -0.053744 0.029189
her 0.039443 -0.009931 -0.238323 -0.349267 -0.461900 0.000689 -0.046619 -0.138753 0.016124 0.151419 -0.043515 -0.114079 0.089218 0.344486 -0.075339 -0.177060 -0.014331 0.183571 0.044471 -0.028750 -0.005564 0.049767 0.081802 -0.247734 -0.185634 -0.118712 -0.102860 -0.109429 -0.007881 0.209792 0.061557 -0.021272 0.067825 -0.045420 0.175851 0.355870 -0.026618 1.169829 0.036655 0.235748 -0.222259 -0.061227 -0.320204 -0.152436 -0.087260 0.035417 0.024663 0.103637 -0.022379 -0.215853 -0.287350 0.366315 0.075114 -0.642081 0.123936 -0.047850 -0.145511 -0.147140 -0.011300 0.101929 -0.089993 0.139345 -0.034174 -0.210841 0.147470 -0.135541 0.194123 0.037213 -0.093506 0.029074 -0.037393 0.025753 -0.043545 -0.248532 -0.216658 0.176977 0.019733 -0.293991 0.179062 -0.112706 0.044764 0.184962 0.134993 -0.235366 -0.340701 0.089459 0.019882 0.051661 -0.100984 0.139915 0.211889 0.067209 0.056882 0.137251 -0.017483 -0.017841 -0.136346 -0.017610 -0.006252 -0.069985
my -0.002536 -0.164675 -0.088789 -0.617515 -0.128459 -0.191460 -0.015258 0.180888 0.146170 -0.103107 -0.117020 0.117132 -0.020866 0.220543 0.305321 0.096502 -0.362710 0.105920 -0.185509 0.096525 -0.123800 0.038721 -0.165150 0.195707 0.069141 -0.120791 -0.166513 0.123858 0.176639 0.174039 -0.113564 -0.005723 0.042206 -0.004705 -0.176982 -0.060148 -0.136411 1.497923 -0.176391 0.268930 -0.348995 -0.005349 0.098650 -0.057725 -0.002186 -0.196035 -0.032271 -0.065896 -0.093453 -0.153578 -0.181820 0.174378 0.197102 -0.513489 0.241494 -0.207732 -0.143782 -0.624306 0.057063 -0.107154 0.034732 0.009420 -0.309144 -0.018322 -0.038117 -0.276653 -0.143342 -0.092022 -0.024733 -0.068525 -0.124534 -0.115504 0.185270 0.018005 -0.087335 0.132271 -0.080990 -0.228078 0.196246 -0.040132 -0.078796 0.118581 -0.199489 0.151848 -0.133995 0.130698 0.183320 -0.017396 -0.122152 0.148278 0.224146 -0.114978 0.074328 0.074241 -0.152795 0.117830 0.050164 -0.063217 -0.191422 0.106517
him -0.031725 0.103987 0.119835 0.291648 0.087057 0.102428 0.012903 -0.008416 0.036637 -0.053252 -0.054023 -0.008564 0.154444 -0.226057 -0.160472 0.083978 0.147570 -0.051327 -0.090533 0.026623 0.136028 0.100842 -0.012211 -0.449928 -0.277870 0.294463 0.127309 -0.106648 -0.371019 -0.016052 0.053506 -0.071977 0.034940 -0.039742 0.341560 0.327733 -0.224106 0.606295 -0.056324 0.653430 0.099498 0.030784 -0.384703 0.027780 0.026463 -0.016935 0.043133 -0.046267 0.176205 0.063070 -0.081984 0.101470 -0.182406 -0.584142 0.400491 -0.072145 -0.146890 0.130082 -0.150818 0.182676 -0.145581 -0.036941 -0.039381 -0.605976 -0.077867 -0.070720 -0.010503 0.002030 -0.083406 0.177359 0.055715 -0.005679 -0.101758 -0.049237 0.018809 0.167914 0.255240 -0.201392 -0.183636 -0.103886 -0.082181 0.020629 0.040676 -0.667508 -0.166938 0.104886 0.042081 0.004557 -0.088065 -0.046433 0.121509 -0.020345 0.057475 -0.053863 -0.153659 0.109468 -0.134067 0.193925 0.127208 -0.199603
have -0.089628 0.097274 -0.123428 -0.142652 -0.004815 0.071368 0.074919 0.084514 -0.077375 0.065138 -0.020441 0.119286 -0.182321 -0.379304 0.136607 -0.203615 -0.742060 0.055310 0.057077 0.031986 0.114558 0.004040 -0.044871 -1.039267 0.010954 -0.189014 0.117167 0.007645 -0.243183 0.469215 0.171416 0.082081 0.014638 -0.014618 -0.034552 0.256198 0.140626 -0.350648 0.011560 -0.526784 0.388685 -0.016740 0.413514 -0.054921 -0.020190 -0.494226 -0.023188 -0.220756 0.093456 -0.310781 -0.088556 -0.001725 -0.032993 -1.077560 0.092278 -0.034938 0.136949 -0.064546 0.328096 -0.011295 0.100282 -0.238047 -0.068159 -0.458586 -0.172029 0.464980 0.046951 -0.091936 0.279507 -0.075142 -0.262924 -0.106892 -0.071330 0.330013 -0.144363 0.065370 -0.101573 0.912743 -0.107626 -0.052001 -0.011107 0.007735 -0.257629 0.063178 -0.007411 0.324358 -0.113608 -0.008728 -0.189313 0.094284 -0.176686 0.119817 -0.030447 0.129127 -0.035697 -0.194178 -0.020912 0.476648 0.196014 0.043945
by -0.064106 0.030459 0.226487 -0.173207 0.142425 -0.041165 -0.174617 -0.302314 -0.333812 -0.239066 0.097468 -0.263139 -0.081362 -0.060085 -0.252899 0.032096 -0.232934 -0.315116 -0.264527 0.043453 0.174555 0.112812 0.149535 -0.233061 -0.064259 -0.295713 -0.159685 -0.019929 -0.188416 0.079971 -0.073456 0.199514 0.145278 0.037649 0.283379 0.220309 -0.137215 -0.464438 -0.224580 -0.351984 -0.185891 -0.088569 -0.017871 0.145559 0.106402 0.146188 0.010807 -0.029041 0.089690 -0.047199 0.077439 -0.185130 0.123475 -0.093599 -0.060270 -0.138216 -0.086922 0.072762 0.381334 -0.194932 -0.184121 0.001081 0.090169 0.755630 0.111652 -0.103974 0.086058 0.047506 -0.121444 -0.304479 0.144132 0.030737 0.019979 0.020789 -0.183198 -0.519255 0.067935 0.440151 0.182640 0.252965 -0.294985 0.122202 0.155200 0.576679 -0.453131 -0.010291 -0.122721 0.376448 -0.240840 0.103066 -0.142765 -0.149980 0.293262 -0.194486 -0.121243 0.193519 -0.106835 -0.165834 -0.021477 -0.208947
this 0.227704 -0.183539 0.225035 -0.117161 0.211180 -0.051004 -0.327394 -0.202807 -0.146678 -0.195938 0.010564 -0.378212 -0.033690 -0.114971 0.026814 -0.161924 -0.296317 -0.201963 0.151365 0.160884 0.425309 0.002570 -0.162120 -0.158722 -0.254827 -0.040679 0.152213 -0.016634 0.170116 0.191982 0.002536 -0.132815 -0.161409 0.029080 0.106507 -0.346073 0.066341 0.949825 -0.034395 -0.089943 0.252105 0.318246 0.111913 0.130839 0.103105 -0.108342 -0.073210 0.040652 0.041946 0.123017 0.014967 0.107531 -0.445499 0.215350 0.081706 0.193628 0.190179 -0.252841 -0.141620 0.247052 -0.105673 0.204473 -0.025789 -0.035463 -0.139834 -0.064335 -0.000189 -0.078841 0.043197 -0.024517 0.022608 0.172005 -0.139820 -0.085343 0.152100 0.058349 0.092774 -0.094142 0.147106 -0.049996 0.145021 -0.145196 -0.043084 0.394195 -0.068132 0.007315 0.327351 -0.098401 -0.293799 0.163617 -0.130146 -0.142088 0.043978 0.050288 -0.034991 0.425455 -0.025027 -0.414740 -0.079905 0.156788
which 0.034905 0.102643 -0.073289 0.044209 0.224214 -0.061278 -0.173801 0.111447 -0.210863 -0.017993 0.058307 0.176242 -0.017331 -0.278408 0.044704 -0.247299 -0.385779 -0.216256 0.174848 0.044898 -0.124543 0.098462 -0.086535 0.031079 0.005650 0.108544 0.222337 -0.014880 -0.001372 -0.028531 0.234471 0.030943 0.090223 0.059752 -0.085817 -0.305776 0.094051 -0.034213 0.053404 -0.642801 -0.149336 -0.049824 -0.188761 -0.019185 0.096511 0.383964 -0.216337 0.123209 -0.027509 -0.157838 0.156516 0.128208 -0.219558 -0.330579 -0.029109 -0.104151 0.308064 -0.202312 0.003149 -0.116488 -0.313536 -0.163806 -0.098867 -0.359019 0.077787 0.150865 0.040726 -0.055575 -0.042521 -0.116859 0.104777 -0.113761 -0.190407 -0.198320 0.126649 0.057479 0.172197 -0.846699 -0.094941 -0.021988 0.280340 -0.227826 0.190982 0.328570 0.371544 0.257446 0.065115 0.044410 -0.086175 -0.012969 -0.478325 -0.158191 0.026745 -0.034699 0.085598 -0.127474 0.223458 0.019217 -0.013473 0.000004
me -0.015727 0.177794 0.110537 0.292344 -0.013211 0.121986 -0.055443 -0.001271 -0.313761 -0.199794 0.108935 0.331632 0.031699 -0.011067 -0.212817 0.095222 0.027728 -0.264015 -0.048666 -0.238446 0.113570 -0.009152 0.087978 -0.330764 -0.023781 0.294664 0.228137 0.083139 0.009876 0.031379 0.095317 -0.108567 0.069593 -0.137446 0.156064 -0.056130 0.024391 0.431616 -0.171404 0.929637 0.005939 -0.121637 -0.271366 -0.110381 0.073293 -0.078175 -0.236512 0.001671 -0.057304 -0.055143 0.059170 0.575433 -0.276127 -0.607444 0.618249 -0.013553 0.050570 0.068408 -0.160337 0.112677 0.137383 -0.144705 -0.004611 -0.645874 -0.075100 -0.015637 0.086796 -0.174317 -0.030852 0.172487 0.005395 0.040088 -0.086389 -0.060547 0.015425 0.106375 -0.026980 -0.289943 -0.178576 -0.124694 -0.061444 0.032532 -0.116000 -0.355047 -0.373207 0.240989 -0.040194 -0.159065 -0.147577 -0.125142 0.017089 -0.129720 0.128507 -0.094041 0.217664 -0.002385 -0.055939 0.283386 -0.196570 -0.080772
all -0.174199 0.189736 -0.280855 0.344083 0.128878 -0.248853 0.097580 0.387535 0.127044 0.167505 0.113038 0.336619 0.074265 -0.468571 -0.005697 0.178544 -0.094044 0.025834 -0.268725 -0.361840 0.144895 -0.091356 -0.061801 0.118518 -0.134934 -0.106528 -0.011124 0.026994 0.025669 -0.352339 -0.061937 -0.016130 0.215582 -0.133120 0.185554 -0.017171 0.295884 0.071084 -0.256766 0.134491 0.139022 -0.078935 0.216660 0.011617 0.141339 0.072024 0.113619 -0.185941 -0.138546 -0.349337 -0.355066 -0.294052 0.166436 -0.079734 -0.036803 0.012909 -0.098142 -0.178634 -0.319345 0.069987 0.060886 0.052442 0.368709 0.044743 0.042303 0.164466 -0.256986 -0.192534 -0.058782 0.019382 -0.023589 0.180839 0.264922 0.300016 0.193811 0.180049 0.512942 -0.090229 -0.007218 -0.074901 0.198288 0.109427 -0.035594 -0.263553 0.241638 -0.018656 -0.236847 0.160919 0.051669 0.140901 -0.114500 0.070918 0.109892 -0.051988 0.183982 0.014584 0.140244 -0.407217 0.235962 -0.163889
said 0.158467 0.215668 0.382159 -0.302788 0.068488 -0.055216 -0.092485 0.095016 -0.194758 0.236520 -0.172052 0.027365 -0.077072 -0.378541 -0.167808 -0.040953 0.118986 0.073997 0.032691 -0.290740 0.010767 0.163673 -0.142176 0.018823 0.029787 0.067874 -0.198377 -0.251912 -0.115876 -0.456972 -0.102512 0.055054 0.131583 -0.247845 -0.006285 -0.172665 0.026688 -0.678566 0.088924 -0.096425 -0.045101 0.049464 0.223480 -0.110201 0.153103 -0.473966 0.001583 -0.030974 0.060067 0.051892 -0.129176 0.603234 -0.075140 0.077831 -0.438804 0.139767 0.286916 -0.100648 0.101007 -0.294224 0.192627 -0.243510 -0.199982 -0.314873 0.058275 -0.970635 -0.176670 0.039355 -0.308366 -0.072990 -0.025859 -0.034315 0.148278 0.061580 0.376402 -0.252856 -0.057518 -0.451525 0.325330 0.011578 -0.021099 -0.051494 0.294388 -0.009172 0.280239 -0.397025 -0.176104 -0.025988 -0.265342 -0.185590 0.337851 -0.190831 -0.127464 0.135378 -0.020491 -0.074305 -0.045308 -0.052143 -0.181513 -0.098268
she 0.061517 0.162936 -0.263323 -0.052937 -0.178018 0.009570 0.070442 0.082513 0.169040 0.012069 0.186606 -0.252216 0.138514 0.336101 0.270907 -0.116035 0.254736 -0.015038 -0.025771 -0.169901 0.017408 0.081532 0.052791 -0.081644 0.028295 -0.158726 0.113097 -0.068431 0.057973 0.790084 0.234401 0.240089 -0.182422 -0.161184 0.060519 0.558750 0.233061 0.422038 0.141161 0.720424 0.195431 0.068727 -0.198964 -0.343520 0.242913 0.556226 0.081070 -0.065299 -0.145269 0.112358 -0.285039 -0.495297 0.265655 0.117652 -0.013252 -0.091332 -0.405209 -0.034044 -0.000743 -0.131634 -0.056896 -0.014351 0.122867 -0.440217 0.013892 0.718286 -0.024876 0.311028 0.059267 -0.195208 0.074932 0.169025 -0.185298 0.006629 -0.360720 -0.188023 0.057409 0.322434 0.170284 0.033868 0.125572 -0.082546 0.158955 0.750507 -0.007392 -0.030471 -0.096976 0.039399 -0.019577 0.205127 0.430340 -0.089444 -0.019956 0.217170 0.100668 0.050947 0.102950 0.012250 0.087125 -0.091336
from -0.308341 -0.132168 0.125291 0.078905 -0.159161 0.003198 0.091896 0.104327 0.203573 0.005549 0.275694 -0.253443 0.077019 0.045037 -0.231909 0.219663 -0.173346 0.469904 -0.106973 0.123679 0.128014 -0.092016 -0.040698 -0.027649 -0.311506 -0.146098 0.144479 0.271599 0.023608 -0.000338 -0.152067 -0.009992 0.066361 -0.031742 -0.029664 0.550878 0.151257 -0.645730 0.065244 -0.339062 -0.182402 -0.011934 -0.254144 -0.198570 -0.010006 0.073067 -0.376160 0.098395 0.101483 0.198291 -0.007336 -0.043579 0.117038 -0.143909 -0.060811 -0.132506 0.118513 -0.126660 0.125643 -0.056723 -0.128211 -0.336429 0.102723 0.798192 -0.279308 0.349348 0.047644 -0.347447 0.016969 -0.299298 -0.004368 0.279566 -0.219083 0.023787 0.520756 -0.072068 -0.259787 0.143898 0.053984 0.137198 -0.091260 -0.132038 -0.038968 0.150577 0.080116 -0.057547 -0.007829 0.011536 -0.170803 -0.037269 0.109769 -0.079637 0.083700 -0.215199 -0.130753 0.063330 -0.090426 -0.133179 -0.105399 -0.300883
or 0.051210 -0.043629 0.126483 -0.034206 -0.166989 0.142868 -0.044517 0.076975 -0.003128 0.008696 0.080725 -0.306948 0.031702 0.163144 -0.073153 -0.059875 -0.282392 0.073330 -0.130130 0.108319 -0.198317 -0.192346 0.046834 0.213981 0.057267 0.268740 0.164305 0.123317 -0.138723 -0.088388 -0.167617 0.022515 0.079676 -0.127613 0.205939 -0.296429 0.016795 -0.012277 0.262983 -0.183694 -0.141570 0.099667 -0.021894 0.033701 -0.236364 0.002938 0.033102 -0.187622 -0.131396 0.280565 0.054155 -0.100634 0.357139 -0.510505 0.200211 0.153201 0.457114 0.128447 -0.032091 0.160997 0.215078 0.037256 0.312670 0.583312 0.052269 0.097485 -0.481903 -0.018348 -0.119578 -0.006722 -0.058954 -0.019421 -0.048276 0.203350 0.031352 -0.032156 0.097190 0.030945 0.003303 0.111434 -0.159758 0.136511 0.037340 0.272087 0.074070 -0.197049 0.093972 0.058110 -0.352531 0.131343 -0.499268 -0.348278 0.045889 -0.128975 -0.016705 0.012034 0.121147 0.595523 -0.237994 0.134067
they 0.349024 0.243100 -0.051525 -0.065807 -0.284393 -0.108011 -0.039059 -0.141726 -0.228032 -0.052732 0.059307 0.089538 0.097765 0.161866 0.184895 0.009990 0.238959 -0.021200 0.146504 -0.057449 -0.047601 0.224930 -0.028552 -0.147667 0.142877 0.362793 -0.271086 0.149907 0.088114 -0.497745 -0.022047 -0.111180 0.093441 -0.017863 0.031079 0.152427 -0.111292 0.287281 0.163459 0.519164 0.201267 -0.066688 -0.254839 -0.145391 -0.046428 0.393092 0.079868 -0.060581 0.170590 0.104580 0.076762 -0.851761 -0.072372 0.055671 -0.018355 -0.065824 -0.849311 0.222755 0.113043 -0.025467 -0.066859 0.042077 -0.070688 0.152805 0.094634 1.117859 0.018044 -0.100506 -0.063362 -0.164718 0.228758 -0.029194 -0.101928 -0.039038 -0.045454 -0.156769 -0.042286 0.317811 0.347334 -0.086624 0.029905 0.036927 0.119116 0.265918 -0.059281 -0.068071 0.252599 -0.212028 -0.184241 -0.191337 0.102163 -0.067093 0.132750 0.086118 -0.029480 0.136472 -0.277851 -0.119316 0.102044 0.010288
so 0.101629 -0.086605 0.080797 -0.205509 0.387887 -0.176021 0.051097 0.098921 0.029194 0.153819 -0.433766 0.340038 0.281291 0.134159 0.290307 0.226671 -0.066781 0.246030 0.050582 -0.101013 -0.087958 -0.092523 -0.224703 -0.167908 0.002389 -0.097263 -0.271470 -0.142935 0.160950 -0.327102 0.014859 0.157956 0.177179 -0.196878 0.253445 0.215737 0.138169 -0.073073 -0.161177 -0.225448 0.109532 0.188507 -0.131035 -0.035747 -0.031929 -0.205435 -0.105258 0.147200 0.235363 0.116490 0.122364 0.196412 0.353831 0.133976 0.104747 0.185787 0.132864 0.088582 0.068976 0.180157 -0.270858 -0.032729 -0.028393 -0.172568 -0.006441 0.099327 0.158934 0.113089 -0.023510 -0.349365 0.375432 0.067977 0.142301 0.231630 0.007272 0.165344 0.187730 -0.203416 0.098753 -0.161485 -0.218951 -0.038573 -0.147031 0.178446 -0.392248 0.170699 -0.097917 -0.043236 -0.014494 0.348662 0.207634 0.195567 0.029746 -0.557471 0.042291 -0.091623 0.076183 0.136135 -0.101044 0.144462
are -0.049840 -0.125241 -0.123681 -0.019201 0.411803 0.033237 -0.135255 0.220644 -0.175730 -0.163815 0.254601 -0.180957 0.125370 -0.331585 -0.109882 0.092787 0.542627 -0.191633 0.156526 0.245552 -0.070333 0.004886 0.050285 -0.140188 0.171001 -1.510780 0.440225 0.045289 -0.037676 -0.073554 0.127585 0.285118 -0.033811 -0.161060 -0.117825 -0.350237 0.334884 -0.303565 -0.013712 -0.037381 0.480916 -0.071416 0.283183 -0.094843 -0.143448 -0.733250 -0.091635 -0.142366 0.047655 0.141030 -0.326965 -0.448204 0.055369 -0.798661 0.085304 0.080049 0.447893 0.116469 0.145386 -0.000357 -0.046161 -0.273805 -0.066934 0.405587 0.153570 -0.106495 0.166787 0.148294 0.215807 -0.154449 0.102668 -0.186650 0.062245 0.003681 -0.107918 0.159940 -0.060573 0.713767 -0.617741 0.049260 -0.271340 0.026344 0.158456 -0.595455 -0.160459 0.283089 -0.214546 0.032533 0.187920 -0.228046 0.359206 0.154989 -0.056080 0.136464 0.390557 0.061546 0.032659 0.087771 0.046865 0.218878
one -0.263250 -0.118331 0.076772 -0.394677 -0.045248 0.073972 -0.081761 -0.061763 -0.130041 0.183521 0.007627 -0.118328 0.142079 0.131915 -0.311512 -0.115970 -0.107755 -0.337896 -0.230685 -0.134394 -0.180725 0.039884 0.073742 -0.187708 -0.026019 -0.026975 0.002906 -0.199928 0.157892 0.180957 0.222181 -0.074629 0.233668 0.415939 0.154546 -0.239419 -0.037442 0.339046 0.064309 0.117388 -0.151174 0.041956 0.101253 -0.021865 -0.209822 0.293050 -0.119460 -0.224562 -0.041854 0.071067 -0.191206 0.081916 0.315027 0.300186 0.263818 -0.017264 -0.150795 -0.286530 -0.114840 0.145939 0.182884 0.440057 -0.135711 -0.314432 -0.101701 0.212136 -0.413210 0.203322 -0.078378 -0.000842 -0.268034 0.618649 -0.196951 0.138677 -0.209919 -0.110160 0.128981 0.391250 -0.241510 0.260233 0.095507 0.292873 -0.252979 -0.140512 0.411035 -0.161225 -0.085264 -0.026608 0.021491 -0.149410 -0.022727 0.122445 0.128311 -0.076154 0.539161 0.099114 0.087281 -0.134882 -0.181846 0.060316
were -0.069784 -0.167249 -0.221641 0.083385 0.250072 0.109827 0.250139 -0.031983 0.247941 -0.327821 -0.121311 -0.047675 -0.031705 -0.248365 -0.184075 0.173981 0.421206 -0.156387 0.006543 0.157156 -0.002255 -0.135282 0.118341 -0.189498 -0.051465 -1.040332 0.254994 0.184443 -0.000867 -0.405118 -0.144499 0.234574 0.061069 0.155207 -0.034167 0.058677 0.251746 -0.156127 0.119657 -0.241816 0.220409 0.100551 0.069263 -0.005462 -0.031797 -0.462054 0.031649 -0.084974 -0.206316 0.019211 -0.364857 -0.452424 -0.109922 -0.947791 0.093867 -0.034077 0.561482 0.153919 0.017307 0.029860 -0.007387 -0.113872 -0.022273 0.262086 0.260278 -0.033352 0.199274 0.146366 -0.050935 0.040809 0.280037 -0.146107 0.097844 -0.068954 -0.046568 -0.169561 0.116437 0.499070 -0.204139 -0.019045 -0.114899 -0.083112 -0.079988 -0.773977 0.097244 0.223794 -0.015484 0.020766 0.228688 -0.064185 0.281190 -0.029380 -0.022697 0.189578 0.252530 0.129244 0.237738 0.259187 -0.127696 -0.001723
what -0.003296 0.263542 0.040616 0.239423 0.268815 0.119688 -0.168129 0.092920 -0.086593 -0.000433 -0.207944 -0.241033 -0.309679 0.051844 -0.108826 0.192913 -0.501511 -0.056626 0.275090 -0.060784 -0.239775 -0.182968 0.351303 0.341219 -0.033918 -0.106305 0.129718 -0.378892 0.108236 0.085183 -0.202293 0.242951 -0.187990 0.120187 -0.061677 -0.268437 0.072011 0.238794 -0.018393 -0.254700 0.261322 -0.383769 -0.031796 -0.024379 -0.013412 -0.063090 0.192857 0.276774 -0.014272 -0.294111 -0.329865 0.483269 0.157412 0.109000 -0.028161 0.202814 0.153642 -0.202388 -0.397349 -0.216963 -0.148841 0.099880 -0.165370 -0.783215 -0.254358 0.121458 0.129530 -0.044092 -0.016038 -0.111347 0.128584 -0.046629 -0.030802 0.257382 -0.081605 0.068544 0.194047 -0.730789 -0.160096 -0.009634 0.076657 0.161506 0.151193 0.302691 -0.232691 0.242017 -0.253394 0.149144 0.218236 -0.014401 -0.660612 -0.190984 0.266617 -0.067376 0.177125 -0.294783 0.329004 -0.223967 0.154161 -0.109699
when -0.045570 -0.198155 0.516387 0.584659 0.118702 -0.287971 -0.146063 0.335892 -0.123834 0.234514 -0.017411 -0.027766 0.054303 0.209140 0.086419 -0.162048 -0.372086 0.047322 0.182169 -0.060211 0.254606 -0.105680 0.142124 -0.197149 0.209136 -0.267795 -0.141636 0.170462 -0.303026 -0.276611 -0.072876 -0.183915 0.022810 -0.043166 -0.010559 0.200639 0.006772 -0.313538 -0.053732 -0.539839 -0.163067 -0.211631 0.318491 -0.037789 0.129606 0.033566 -0.169851 0.023827 -0.019584 0.118250 -0.228350 0.158562 0.132878 -0.191851 -0.313579 0.119691 0.148969 -0.077905 -0.145362 0.338569 -0.220451 0.324181 -0.045726 -0.077984 -0.123884 -0.343548 0.229150 -0.174084 0.025248 0.055916 0.137223 0.123572 0.356392 -0.091051 0.055193 0.135384 0.163647 -0.581161 0.006282 0.007260 0.079921 0.166371 0.150660 0.494070 0.302311 0.407543 -0.252195 -0.051141 -0.119040 -0.024184 -0.400130 0.092089 -0.013654 -0.184155 -0.143946 -0.008829 0.076890 -0.200914 0.129138 0.159646
no -0.061662 -0.014788 0.071189 0.403083 0.231562 0.107685 -0.050352 -0.409094 -0.171582 -0.077603 -0.062423 0.228590 -0.085632 0.087793 -0.010664 0.004690 0.301019 -0.051248 0.123403 0.116447 0.297282 0.139792 0.146547 0.410665 0.063799 -0.137000 0.257707 0.210930 -0.416427 -0.084157 -0.172348 -0.005113 0.046907 -0.263690 -0.382906 -0.196053 -0.274619 0.901560 -0.261073 -0.249897 0.195405 -0.024511 -0.220576 0.114454 -0.326218 -0.455317 -0.000024 -0.072075 0.195310 0.189519 -0.099771 0.224900 0.216279 0.133681 0.141334 -0.439008 0.070719 -0.111489 -0.383564 -0.188078 0.401542 0.001477 -0.192570 -0.232440 -0.325340 0.454454 -0.480794 -0.692589 -0.160784 0.011444 0.322440 -0.317449 0.020918 0.053107 -0.320540 -0.096940 0.059007 -0.578942 0.049182 -0.080721 0.061169 -0.284845 0.000962 0.445607 0.346370 0.072335 -0.328284 0.063218 -0.171010 -0.032043 -0.434621 0.391222 -0.239931 0.160020 -0.386095 -0.072056 0.111685 -0.156078 0.079432 -0.088394
if -0.066556 0.094028 0.236237 0.295418 -0.261465 -0.085783 -0.036805 0.238414 -0.191046 -0.037827 0.059521 0.124621 -0.066494 0.008709 0.365311 0.035655 -0.239073 0.268791 0.023839 -0.112385 0.012074 0.222347 0.058404 0.583887 -0.018728 -0.081720 -0.078525 0.149547 -0.358072 -0.218489 0.149877 0.051467 0.165672 -0.121246 0.161629 0.163169 -0.191370 -0.404671 -0.041466 -0.125769 0.089480 0.132219 0.611008 -0.173563 -0.050148 -0.429535 -0.045256 0.180558 0.157569 -0.014326 -0.070490 -0.025164 0.348397 -0.086588 -0.028293 0.498071 -0.156857 -0.110671 0.164503 0.053267 -0.038622 0.130948 -0.338737 -0.153856 0.276036 0.052603 -0.201129 -0.045912 0.387318 0.230784 0.158034 -0.143521 0.140560 -0.120989 0.126253 -0.231418 -0.169776 -0.585087 0.012245 -0.146278 0.146623 -0.159746 0.006774 0.594191 0.065249 0.584548 0.298775 -0.281752 -0.070049 -0.291391 -0.255198 0.243293 0.345058 0.180571 -0.069134 0.318997 -0.259654 0.223200 0.175402 0.427168
there 0.041702 0.048957 -0.030458 -0.187859 0.022748 0.073566 0.013589 -0.249238 -0.018590 0.096733 -0.033593 0.009979 -0.018167 -0.144980 0.247411 -0.149912 -0.646349 -0.043735 0.079376 0.033992 -0.312011 -0.024557 -0.158945 -0.427887 -0.162286 0.142546 -0.138809 0.122127 0.373577 -0.358107 -0.268507 -0.324780 -0.012399 0.249981 0.254100 -0.156371 -0.018281 -0.191552 0.036994 -0.085225 -0.045310 -0.056076 0.129152 -0.263285 -0.107918 0.219808 -0.061644 -0.203588 0.148188 -0.199522 -0.419232 -0.247178 0.134512 0.838059 0.031113 0.164295 -0.960080 -0.274089 -0.158344 0.155184 0.015257 -0.126642 -0.353106 -0.398624 -0.126214 -0.039244 -0.349413 -0.323148 -0.265332 0.361405 0.397574 0.003533 -0.223713 0.182057 -0.230357 -0.326434 -0.106482 -0.021861 -0.374086 0.046332 0.154113 -0.271977 0.047765 0.781563 -0.529029 -0.228502 -0.079715 -0.060837 -0.067693 0.002249 0.173779 -0.472335 -0.093432 -0.046690 -0.055003 0.278892 0.136470 0.638537 -0.092508 -0.235823
who -0.120170 0.106744 0.269202 0.162791 -0.222108 0.092669 -0.019021 0.013876 0.018241 0.060742 0.223015 -0.016671 0.115239 -0.388477 0.174329 -0.066345 -0.167594 -0.264236 0.017834 -0.525665 -0.078176 -0.109634 0.175102 0.064880 0.033943 0.000277 -0.009233 -0.250774 0.247044 0.106216 0.006572 -0.266387 0.138586 -0.066862 0.004767 -0.232283 -0.241013 -0.058668 0.080339 -0.106885 0.046662 0.245956 -0.463535 0.065288 0.421404 0.529021 -0.219009 -0.024822 -0.241872 0.238257 0.462622 -0.164277 0.132633 -0.274716 -0.553470 -0.021985 -0.660520 0.381091 -0.084138 -0.139731 0.312535 -0.370678 -0.240104 -0.249748 -0.126885 -0.016369 -0.050403 0.050529 -0.006177 -0.461369 -0.173847 0.044052 -0.208870 -0.306980 -0.321199 -0.395293 0.081297 -0.419261 -0.117193 -0.197780 0.001654 0.023239 0.069419 0.673284 -0.130633 0.035532 -0.257461 -0.039674 0.201786 -0.204255 -0.767842 -0.023315 0.228245 -0.060903 0.164767 0.379050 0.137504 -0.009772 -0.077805 0.173899
we -0.020540 0.150334 0.040874 -0.075099 -0.254857 -0.110291 0.051715 -0.110133 -0.034403 0.117754 -0.043186 0.014089 0.156265 0.006333 0.118811 0.033676 0.202107 0.159575 0.157348 -0.144823 -0.130628 0.007917 -0.144802 -0.167446 -0.001018 0.377382 -0.062899 -0.108647 -0.017658 -0.692058 -0.357280 -0.220625 0.137212 0.029581 -0.224435 -0.104066 -0.171073 0.322509 -0.230364 0.799293 0.080888 0.008557 -0.196736 0.120599 -0.152372 0.328171 0.036902 -0.173339 0.137640 0.038699 0.105409 -0.840070 -0.107226 0.052270 -0.274249 0.083934 -0.762829 -0.006246 0.144769 -0.031778 -0.162182 0.175565 -0.128293 0.280347 0.072612 1.148184 0.022665 -0.248880 -0.003619 0.095919 -0.376785 0.202331 0.113097 -0.006950 0.005358 -0.143836 0.048492 0.262804 0.091827 -0.152127 0.080872 -0.243708 0.028409 0.340451 0.137694 -0.035921 0.182171 0.125630 0.105766 0.086116 0.316425 -0.134844 0.081263 0.137588 0.007441 -0.085974 -0.079282 0.201367 -0.170988 0.301845
will 0.173723 -0.138694 -0.040560 0.104106 0.419857 0.096971 -0.217548 0.102414 0.028716 -0.076922 0.401894 0.002175 -0.274952 0.244039 -0.349720 -0.055081 0.165176 0.048069 -0.303772 -0.352559 -0.082788 -0.289047 -0.099075 0.160442 0.038394 -0.335757 0.198054 0.133475 0.097893 -0.938314 -0.154824 0.012735 -0.120766 -0.247827 -0.041627 -0.064183 0.038774 -0.421791 0.031111 0.332949 -0.137176 0.126089 -0.004777 -0.319597 0.013707 -1.403638 0.165924 0.084305 0.281242 -0.163704 0.078866 -0.210834 0.007917 -0.089800 0.055477 0.073625 0.235633 -0.082559 0.111035 0.129614 0.125715 0.568769 0.064992 0.600408 0.231836 -1.026842 -0.006041 -0.216860 0.177887 0.024219 -0.157520 0.106470 -0.050072 -0.011432 -0.051423 0.042697 -0.050757 0.011707 -0.416468 0.061985 -0.061906 -0.076923 -0.139466 0.205229 -0.152735 0.013182 -0.026880 0.019118 -0.050339 0.012177 0.038509 0.129865 0.114418 0.188387 -0.019586 -0.060411 0.123179 -0.201615 0.191455 -0.067394
an -0.000252 -0.071670 0.468945 -0.391987 0.332507 0.005418 -0.038450 -0.221163 0.048027 -0.154630 -0.003686 0.455133 -0.386757 0.187906 -0.512382 0.167306 0.146554 0.114004 -0.156035 -0.087608 -0.023681 0.135209 0.034896 -0.175693 0.179633 -0.201135 0.191197 0.149630 -0.141157 0.252038 -0.080554 0.300103 0.007544 0.076274 -0.023538 -0.072623 -0.038737 1.532898 0.042988 -0.005853 0.032287 -0.180300 -0.408825 -0.025937 0.101106 -0.280936 -0.044936 -0.102366 -0.096356 -0.578812 0.702622 -0.055806 -0.218144 0.342586 0.045165 0.046996 0.583793 0.023067 0.055985 0.128756 0.775387 -0.144372 -0.269897 0.148983 -0.027745 0.022755 0.047441 0.195390 0.511906 -0.351608 -0.012325 -0.034131 0.137221 0.137629 -0.037933 0.186586 0.021821 -0.118995 0.376891 -0.022601 0.102903 0.152211 -0.147816 0.141725 0.004949 -0.305626 0.261877 -0.191042 -0.276748 -0.067944 -0.212471 0.120420 0.260762 -0.186795 0.183049 0.321410 0.030504 0.009281 0.045340 0.214822
then 0.115854 -0.115255 0.299392 0.397292 0.205959 -0.031036 0.342374 0.161616 0.220947 -0.206818 -0.035579 -0.003631 -0.129817 -0.014199 0.276830 0.038625 -0.406015 -0.234974 -0.086796 0.066974 -0.070136 0.157953 -0.171835 -0.320231 0.175682 -0.105547 -0.157958 0.091756 -0.056009 -0.049004 0.014520 -0.002856 -0.304851 -0.184638 -0.237824 0.451383 -0.060306 -0.230439 0.194683 0.261926 0.053266 -0.179115 0.113422 0.101260 -0.186960 -0.103981 0.008496 -0.118055 -0.065268 -0.120111 0.257035 0.132395 -0.132853 -0.032208 -0.574565 0.036962 -0.009830 -0.088832 0.164490 0.149227 0.008075 -0.168801 0.079532 -0.176476 0.293277 -0.164519 -0.078542 -0.115286 0.016623 0.148496 -0.172239 -0.049070 0.035611 0.080204 0.064534 -0.019612 0.039464 -0.291018 -0.032590 0.067469 -0.047638 0.038214 0.022575 0.055264 0.030211 0.390165 0.019541 0.057826 -0.342926 0.081496 0.262024 -0.333089 0.032062 -0.321720 -0.180718 -0.080001 0.077893 0.015834 0.090505 -0.119591
their -0.173707 -0.005899 -0.063614 -0.369048 -0.208663 -0.120503 -0.098627 -0.135772 0.067858 0.052914 -0.038421 -0.070773 0.117065 0.098864 0.036656 0.041294 -0.430339 0.033371 0.053126 -0.081368 -0.022187 -0.273807 -0.351454 0.069780 0.239049 -0.230496 0.074055 -0.166271 -0.017578 -0.028894 -0.550204 0.097813 0.053165 -0.246438 -0.048303 -0.120408 0.044818 1.304617 0.067463 0.006325 -0.172227 -0.006690 -0.135357 -0.033630 -0.135269 -0.248417 -0.137804 0.079108 -0.156682 -0.238193 -0.106840 -0.286778 -0.047801 -0.537345 0.041200 0.036607 -0.317559 0.003596 -0.236335 -0.056738 -0.219023 0.125757 0.053677 0.265929 0.192437 0.087324 0.095632 -0.071481 0.023985 -0.166096 0.258843 0.013165 -0.022975 0.184864 -0.157694 -0.034698 -0.103819 -0.360310 0.103620 0.209979 -0.036897 -0.115991 -0.050318 -0.159103 -0.145207 -0.216238 0.189052 0.035688 0.263009 -0.052248 0.175146 -0.089333 -0.049575 -0.013410 -0.180062 -0.040878 -0.201564 0.193119 0.080331 -0.185482
would 0.083553 -0.026490 -0.061837 -0.031039 0.130105 0.034177 -0.149162 -0.055020 0.071322 -0.222970 0.189667 -0.175386 -0.413413 0.243439 -0.143910 0.072643 0.751082 -0.109037 -0.060412 -0.313096 -0.139094 0.111156 -0.035024 0.325723 0.337864 0.055372 0.164773 -0.003968 -0.000500 -1.083340 -0.012527 0.243427 0.037164 -0.035059 -0.065874 0.160739 0.180535 -0.353993 0.071614 -0.044389 -0.206257 0.118384 -0.218002 -0.204102 -0.178525 -1.169171 0.097884 0.173011 -0.065554 -0.156582 0.061454 -0.332972 0.091157 -0.147532 0.181526 -0.016761 0.076956 0.132493 -0.336736 0.040819 -0.013517 0.584354 -0.091642 0.607339 0.293494 -0.747115 0.311559 -0.056549 -0.277925 -0.115172 -0.096575 0.315813 -0.102499 -0.113252 0.241563 -0.067819 0.070890 0.070747 -0.096188 0.009008 0.160336 -0.078427 -0.138682 0.422446 -0.168871 -0.124803 -0.111763 -0.207036 -0.132897 -0.167773 0.085255 -0.212501 -0.114784 -0.008488 -0.105111 -0.105823 0.237767 0.117698 0.053483 -0.007271
them 0.152238 0.024229 -0.099259 0.237452 0.190147 0.270741 0.009433 0.073430 0.137183 -0.239182 0.101591 -0.002125 0.209897 0.122063 0.012709 0.092224 -0.164773 -0.456851 0.197626 0.041013 0.296257 0.025083 -0.071662 -0.292430 -0.162889 0.126751 -0.139936 -0.124031 -0.288431 -0.341745 -0.285969 0.133092 -0.146603 0.001982 0.203712 -0.211696 -0.092311 0.654141 0.243083 0.600808 0.015917 -0.135731 -0.311770 -0.104753 -0.113170 -0.146509 -0.194162 0.097656 0.242591 -0.211177 -0.057861 0.157671 -0.175775 -0.403943 0.251091 -0.007420 -0.306888 0.338311 -0.302043 0.025890 0.262596 0.173413 0.048854 -0.683190 0.210771 0.085191 0.152276 0.064908 0.177323 0.050723 0.031296 0.119579 0.051039 -0.046402 -0.056787 -0.030356 0.051092 -0.038402 -0.242613 -0.022291 -0.319878 -0.033584 -0.012019 -0.782131 -0.051395 -0.085893 -0.112266 -0.081671 -0.146955 -0.498743 -0.038341 0.089601 0.068927 0.047697 -0.154561 -0.097603 0.049689 0.025570 -0.243008 -0.059894
been -0.086231 -0.105726 0.204026 0.012147 -0.020108 -0.193310 -0.049785 0.257637 0.104086 -0.109484 0.310514 -0.158874 0.133945 -0.267923 -0.232582 0.056385 0.817057 -0.044248 -0.163469 0.335617 0.147260 0.118512 -0.193928 0.376398 0.112249 -0.147233 0.001484 0.148838 0.065475 0.035468 -0.040370 0.167263 -0.287798 0.066924 0.129275 -0.195405 0.148354 0.231830 0.004196 -0.146772 -0.038051 -0.013325 -0.469587 -0.011411 -0.103775 0.027735 -0.217243 -0.031630 -0.324315 1.113544 0.218356 -0.400868 -0.263381 -0.602851 0.022331 -0.299947 0.175338 0.289328 -1.346547 0.107660 -0.023076 -0.032760 -0.119877 -0.723541 -0.010743 0.559580 0.239067 -0.022010 0.178199 -0.272239 -0.028564 0.036038 0.229987 -0.002568 -0.002485 -0.025437 0.142717 -0.518507 0.028507 -0.042880 -0.315811 -0.117972 -0.036836 -0.385122 0.497148 0.107592 -0.197671 0.018836 -0.226178 -0.226453 0.332248 0.160773 0.265255 -0.002050 -0.029032 -0.128644 0.271361 0.687041 -0.013299 0.291849
do -0.587407 -0.225599 0.223036 0.202446 -0.097381 -0.435507 0.243707 0.185857 -0.054698 0.149167 0.097128 0.094264 -0.072601 -0.508368 0.318803 -0.207372 -0.150217 0.141700 -0.068948 -0.235842 -0.139009 0.377046 0.116716 -0.388590 -0.039371 -0.013696 -0.121915 -0.040529 -0.329447 0.298393 0.221651 0.306717 -0.143404 -0.048909 -0.180278 -0.041941 0.317558 -0.179823 0.210412 0.558837 -0.070980 0.184561 0.822864 -0.097694 -0.014346 -1.607797 -0.213100 -0.208683 0.056576 -0.480912 0.164702 0.068941 0.274582 -0.398987 -0.244393 -0.064835 0.341264 -0.215065 -0.147834 -0.099987 0.379068 -0.342939 0.242325 -0.388652 0.316209 0.259331 0.030880 0.324059 -0.256544 -0.299227 -0.034079 -0.231476 -0.219472 -0.522471 -0.120065 0.043021 -0.421631 -0.209260 -0.124464 -0.196536 -0.092479 0.252516 -0.041797 -0.354268 0.277890 -0.116233 0.013152 0.196677 0.388259 -0.234451 0.212596 0.288194 -0.251750 0.397443 0.114327 0.025977 0.345262 0.229384 -0.150838 0.194656
your -0.059486 0.133929 -0.315744 -0.498334 0.083160 -0.268340 0.209037 -0.041076 0.039925 -0.026765 -0.113272 -0.124412 0.029991 -0.059454 0.003312 -0.001986 -0.371791 -0.061151 -0.123667 0.104237 -0.220162 -0.141015 -0.056674 0.173379 -0.169760 -0.091952 0.179699 -0.045385 0.273737 0.116869 0.190939 0.399719 0.047371 -0.083058 0.155004 -0.288412 -0.085639 1.346455 0.280461 0.445113 -0.500299 0.162606 0.087194 0.129847 -0.069957 -0.464140 -0.203506 0.067688 -0.127071 -0.111120 0.271536 0.040281 0.155564 -0.599457 0.073338 0.135674 -0.099809 -0.032418 0.006521 0.003394 -0.171922 0.214728 0.110462 0.139219 0.050621 -0.259086 -0.145527 -0.216088 0.101426 0.211204 -0.070558 0.011629 0.163462 0.003243 -0.140616 0.128656 -0.105401 -0.386477 0.094323 0.158265 0.019563 -0.073638 -0.081456 0.178523 -0.185399 0.397313 -0.018339 -0.228620 0.049059 0.049022 0.226101 -0.153874 -0.264797 0.004949 0.055702 0.022874 0.280949 0.007828 -0.133846 0.021708
now -0.181419 0.001176 0.045951 0.086690 -0.018154 0.017435 0.273490 0.225926 -0.078465 -0.125293 -0.091292 0.000850 0.056032 0.130641 0.165609 -0.055606 -0.232859 -0.175124 0.206362 -0.036663 -0.083153 -0.192972 -0.063600 -0.083949 -0.133398 -0.119057 0.191457 -0.108263 0.095288 -0.379271 -0.233915 -0.051296 -0.013133 0.141358 -0.020784 0.376829 -0.106385 -0.025595 -0.013905 0.143929 -0.088299 -0.106664 0.074424 -0.102823 0.054836 0.074721 -0.120034 -0.105106 -0.078804 0.011989 -0.208561 0.007506 0.106539 0.115486 -0.111864 0.118920 -0.131488 -0.066383 0.227106 0.169447 0.074582 -0.093374 -0.014257 -0.345564 -0.052640 -0.192965 -0.060326 -0.280609 0.079258 -0.188049 0.135085 -0.178517 0.059016 0.159829 -0.223084 0.270740 -0.237518 -0.302681 -0.046136 0.066781 0.130153 -0.111830 -0.098251 0.334556 -0.048684 0.198384 -0.026054 -0.003367 -0.174794 0.323678 0.404578 0.278846 0.120353 -0.119746 0.144685 0.176738 -0.275661 0.030915 0.081022 0.346073
out 0.284571 -0.606127 0.097963 -0.079126 0.233296 -0.125758 0.126158 -0.055904 -0.029394 -0.129639 0.059474 0.066227 -0.067027 0.148029 0.107733 -0.179833 -0.509999 0.101531 -0.153553 -0.018907 -0.268380 0.383166 -0.143467 -0.177505 0.461068 0.093330 -0.299584 -0.262123 -0.282473 -0.401060 0.181299 0.074613 -0.077031 -0.082061 0.140471 0.483688 -0.104330 -0.001672 0.007367 0.297151 -0.124782 -0.012727 -0.720522 0.079082 0.099947 0.325280 -0.166324 -0.071910 -0.084528 0.151232 0.154027 -0.074372 0.394334 0.315466 -0.187367 -0.174743 0.263427 0.138073 -0.217352 -0.371195 -0.220713 -0.034366 0.262990 0.048998 -0.038781 -0.188769 -0.052014 -0.410994 0.358867 0.180767 -0.050501 -0.209990 0.138089 -0.309292 0.124972 0.068149 0.104690 0.384099 -0.231991 -0.208380 -0.003400 0.087021 -0.114965 -0.289435 -0.284686 -0.125244 0.019571 0.050661 0.056593 0.135041 -0.831984 0.013121 -0.074405 0.257560 0.211376 -0.196448 -0.071815 -0.787800 -0.005610 0.143553
more 0.123801 0.182311 0.294870 -0.595265 0.221649 -0.130093 0.118705 0.174641 -0.123799 -0.256146 -0.148056 0.228765 -0.101824 0.475600 -0.148213 0.032531 0.034756 0.159039 -0.031049 0.831658 0.187539 0.009807 0.262970 -0.178080 0.096347 0.172872 -0.626326 0.342330 0.085462 0.082309 0.371687 0.003953 -0.196349 -0.116662 -0.023496 -0.229850 -0.175043 -0.221283 0.269637 -0.147480 0.189347 0.292516 -0.313392 -0.274652 -0.013166 -0.273799 -0.441070 -0.444404 0.087960 -0.568217 -0.047224 0.078788 0.065126 0.313445 0.327490 -0.014213 -0.139307 -0.012273 -0.206722 -0.118464 -0.013783 -0.277763 0.044735 -0.000362 -0.121010 0.273323 -0.029739 0.275363 0.155320 -0.241227 0.340948 0.284914 0.301525 0.381226 -0.092104 -0.005414 -0.061556 -0.142279 -0.352329 0.403566 -0.040904 -0.010857 0.395242 0.072884 -0.318087 0.177269 0.240354 -0.332786 0.456834 0.017754 0.186308 -0.131253 -0.044880 -0.682599 -0.134890 0.353229 -0.159619 0.109478 0.337015 -0.138209
up -0.053900 0.169193 -0.028701 -0.215471 0.438688 -0.191748 0.003427 0.036913 0.466130 0.060897 0.047320 0.203429 -0.136062 -0.080709 0.237997 -0.119371 -0.314207 -0.038941 0.123088 0.190601 -0.042646 -0.248061 0.023487 -0.675771 0.188316 -0.106384 -0.391956 -0.075744 -0.335244 -0.179905 -0.142813 0.203392 0.129334 0.327377 0.010698 1.073118 0.113419 -0.161257 -0.238623 0.255415 0.036418 0.217685 -0.944175 0.043452 0.051821 0.185022 -0.239464 -0.221118 0.084695 0.604673 0.428419 -0.071406 0.023385 0.030332 -0.152215 0.115527 0.069638 -0.351788 0.227186 0.026044 -0.118623 -0.258358 0.010947 -0.011933 0.371198 -0.050963 -0.034094 -0.461805 -0.032151 0.350717 0.005016 0.147657 0.051806 -0.205844 0.255562 -0.089397 -0.017582 -0.175142 -0.093009 0.150337 -0.082779 0.337414 0.021558 -0.356780 -0.213069 0.035025 -0.268429 0.012935 -0.070434 -0.176890 -0.260841 0.341015 0.007995 0.043980 0.126215 0.132432 0.250391 -0.279569 -0.367832 -0.143793
man -0.530295 0.018938 0.358875 -0.351313 0.009508 0.315439 -0.129378 0.186356 -0.180300 0.009243 0.057117 0.229697 0.345362 0.342602 -0.040464 0.050151 0.167957 0.146119 -0.095042 -0.079910 0.048897 -0.137015 -0.010952 -0.315073 0.182448 -0.560791 -0.014636 0.015259 0.439480 0.246546 0.151475 0.105035 -0.246888 0.229682 0.089837 -0.637581 0.137965 -0.625277 -0.151737 0.452516 -0.087193 -0.452056 -0.217552 0.082931 0.177763 0.781748 0.095587 0.158452 0.065847 -0.388341 0.323895 0.115265 0.007000 0.148887 -0.311257 -0.270274 -0.182486 -0.427920 -0.593642 -0.197846 -0.013484 0.553150 0.125860 -0.436720 -0.366876 0.011847 -0.334164 0.229847 0.224138 0.373272 0.096194 0.026017 0.067494 0.170416 0.298433 0.110818 0.235974 0.605031 -0.287079 -0.048189 -0.145922 0.219855 0.118316 -0.157788 -0.213423 0.002685 0.138950 0.129787 -0.195698 -0.041076 0.076517 -0.080615 -0.056258 -0.091626 -0.098092 0.030410 -0.238876 0.545679 0.064653 0.066193
into -0.194487 -0.288686 -0.180760 0.166254 0.030300 0.007602 -0.007107 0.082435 -0.030790 -0.046578 -0.004238 0.317356 -0.304040 0.232143 -0.035861 0.395461 -0.474861 0.365035 -0.040954 0.108409 -0.080379 -0.068934 0.106358 -0.370668 0.345789 0.013875 0.017547 0.011672 0.124734 0.121355 0.121416 0.159092 -0.214078 0.163317 0.097684 0.898882 0.126459 -0.921206 -0.223055 -0.326286 -0.235123 -0.081778 -0.706290 0.104343 0.070677 0.095766 0.070505 -0.055931 0.302360 -0.055269 0.100886 -0.061980 0.100075 0.114825 -0.160451 0.271414 0.264191 -0.437416 -0.074065 -0.034677 -0.263242 -0.131289 0.055163 1.092405 -0.010149 0.017944 0.200390 -0.096400 -0.002496 0.035442 -0.050322 0.446372 -0.038581 -0.047329 -0.110981 0.171111 -0.228668 0.057985 -0.179102 0.022380 -0.154274 -0.324991 -0.011319 0.277303 0.195470 0.415447 -0.155799 0.024050 -0.357548 -0.165474 -0.252439 -0.060462 0.008066 0.465479 0.055159 -0.083579 0.189740 0.244966 0.004784 -0.287811
some -0.045066 0.069733 0.046750 -0.194282 0.091376 -0.065677 0.092207 0.072815 -0.072158 0.086165 0.069978 0.178019 -0.037602 -0.066491 0.137516 -0.004091 0.230656 0.202045 0.164204 -0.269060 0.431156 0.062913 -0.021364 -0.118737 -0.038240 -0.226730 0.317750 0.118684 -0.043430 -0.119946 -0.173522 -0.366876 0.057572 -0.251133 -0.107846 -0.121979 0.026045 0.981036 -0.183946 -0.156396 0.271125 -0.101505 -0.289901 0.118307 -0.124698 -0.159650 -0.045209 0.212404 -0.042552 -0.279910 -0.112751 -0.108118 -0.070520 0.030653 0.156960 0.188739 0.099940 0.201106 -0.243972 0.048032 -0.328065 0.023534 0.347394 0.154413 -0.004537 0.528955 -0.524394 -0.146309 -0.048983 -0.055240 -0.215244 -0.095803 0.206538 0.003215 -0.028893 -0.081338 0.115212 -0.206037 0.029217 0.551782 0.344297 0.282572 -0.021085 -0.104852 0.370120 0.001650 0.030215 -0.036475 0.107195 0.024877 -0.268794 -0.149769 -0.133468 -0.207419 -0.063050 -0.089369 -0.134418 -0.093067 -0.010402 -0.089899
could 0.039863 0.147073 -0.165978 0.390136 -0.103023 0.100429 0.085490 -0.109965 -0.075154 0.086709 -0.147779 0.278594 0.036517 0.319793 -0.232436 -0.123939 0.509485 -0.043932 -0.130246 0.192988 0.218190 0.209190 -0.445361 -0.076371 -0.180012 0.156851 -0.081712 0.170545 0.001157 -1.080293 -0.171869 -0.400797 -0.284102 0.400998 0.145619 0.216756 -0.192094 -0.258140 -0.029790 -0.161515 -0.034119 -0.134668 0.009035 0.258309 -0.081707 -1.706117 -0.201383 0.044056 0.087842 -0.492662 0.099932 -0.253922 0.008852 -0.154267 0.203161 0.088120 -0.185925 -0.440110 -0.090595 0.025870 -0.121352 0.780070 0.071387 0.352629 0.204030 -0.729320 0.092856 0.162382 -0.266499 0.101353 -0.044375 0.097470 -0.285336 -0.213208 -0.066758 -0.178958 0.296457 0.295746 -0.100059 0.084595 0.328460 0.304456 0.351616 0.190997 0.181489 -0.309429 -0.075915 -0.056387 0.249581 0.092942 0.063320 -0.106176 -0.039969 -0.220445 -0.357309 -0.015514 0.107370 0.344904 -0.266116 -0.374763
has -0.014203 0.020145 -0.226290 -0.254088 0.134929 0.024172 -0.220407 -0.373169 0.041308 0.114167 0.074077 -0.025678 0.033418 -0.188945 0.267885 0.007390 0.596363 -0.194599 0.158517 0.069881 -0.119052 -0.129799 0.460650 -0.711734 0.209696 0.453474 0.114248 -0.121273 0.250819 -0.132150 0.040920 -0.031386 0.143568 -0.048786 0.015495 0.121023 -0.208867 -0.465302 -0.084455 -0.864433 -0.041401 -0.013697 0.097273 -0.104160 0.010675 -0.706858 -0.021829 0.363488 0.205630 -0.613252 0.021837 -0.131415 -0.002407 -0.779552 0.000802 0.122612 0.169482 -0.190123 0.457163 0.038924 -0.138644 0.267073 -0.001668 0.288296 -0.181301 -0.262041 -0.321442 -0.195853 0.286777 -0.004492 0.045401 0.037884 0.180879 0.297212 0.171708 0.125815 -0.272673 1.321417 0.167666 -0.061742 0.174794 -0.186807 -0.025262 0.182500 -0.446343 0.180027 -0.003912 -0.144422 -0.066813 0.157570 -0.079682 -0.239840 -0.169760 -0.256958 0.072016 -0.413909 0.201670 -0.067924 -0.134456 0.353963
only 0.021765 -0.132946 -0.529350 0.275197 0.082081 0.081440 -0.115426 0.206113 -0.205779 -0.163118 0.034439 -0.051557 0.136402 0.035663 0.218269 -0.086016 0.209048 0.198266 -0.083955 -0.369852 0.059646 -0.086896 0.406358 -0.096358 -0.417120 0.132990 0.297530 0.023255 -0.335102 0.181661 -0.442488 0.050380 0.460915 0.205418 0.010017 -0.080392 0.135679 -0.255091 0.165589 -0.119201 0.193223 0.268520 -0.156398 0.182137 -0.238518 -0.116970 -0.045248 -0.163707 0.120153 -0.051916 0.040013 -0.100559 0.255815 -0.030843 0.115269 -0.245943 -0.200981 -0.041278 0.052652 0.074670 0.153416 0.296513 0.264399 -0.310269 0.057590 0.167731 -0.252450 -0.130092 -0.219553 0.067648 0.034784 0.059376 0.091016 -0.176756 -0.185111 0.104760 -0.014285 -0.419787 -0.251311 0.144951 -0.143237 -0.167965 0.045542 0.309622 -0.066426 0.112938 0.196943 0.444588 -0.211460 -0.089182 -0.233237 -0.114934 -0.008660 0.118607 -0.291114 0.228999 -0.089887 0.026141 0.068728 0.093726
any 0.104490 0.254107 -0.324979 -0.262273 0.613053 0.091635 -0.053823 -0.305446 0.005414 -0.068731 0.032372 -0.053523 0.043773 0.087927 -0.040835 -0.192915 0.343459 0.523293 0.011644 0.450409 0.450001 0.139541 -0.276153 0.204032 0.078762 -0.182528 0.069832 0.135531 -0.111933 0.113288 -0.199454 -0.533592 -0.048392 -0.369930 -0.031995 -0.157835 0.168698 1.087266 -0.636543 -0.050735 0.471941 -0.311465 -0.484072 -0.010847 0.202163 -0.858408 0.144093 -0.063650 0.009885 0.028386 0.454819 -0.030437 0.216007 -0.154435 0.144755 -0.099961 0.528128 0.033138 -0.025111 -0.028067 0.509641 0.094130 0.141658 -0.133635 0.315559 0.514331 -0.338591 0.151355 -0.060149 -0.107642 -0.008569 -0.352718 0.085984 0.185424 0.021270 -0.077700 0.380862 -0.143122 -0.178680 0.028743 0.145114 -0.059227 0.164172 -0.189474 0.535596 -0.076980 0.084470 -0.014284 0.178629 -0.218086 -0.583907 -0.319645 0.041489 0.310603 -0.266498 0.366013 -0.010761 -0.363355 0.039994 -0.034430
very 0.313551 -0.014542 0.141935 -0.147886 0.077370 -0.134491 -0.098218 -0.108487 -0.240451 -0.223035 -0.280850 0.143940 0.211947 0.264424 0.248690 0.019459 -0.083050 0.312063 -0.147514 -0.436207 -0.284594 -0.342496 -0.081747 -0.187995 -0.156022 -0.300952 -0.469967 0.184997 0.076094 -0.097724 0.025062 -0.054488 0.414078 -0.100339 -0.126059 -0.378401 0.274297 -0.019402 0.192833 -0.249648 0.172825 0.279661 -0.229508 0.131639 0.099913 0.211015 0.052131 -0.074139 -0.215291 -0.354066 0.097027 0.206931 0.006552 0.671346 -0.260718 -0.221604 0.364519 0.007485 -0.232618 0.114550 -0.228420 0.022196 0.044663 -0.219825 -0.150223 0.127089 0.244929 0.098791 -0.014966 -0.138690 -0.038825 -0.066274 -0.002437 0.224887 0.137864 0.188551 0.291871 -0.098684 0.020878 -0.084162 -0.223095 -0.000491 -0.237762 0.278125 -0.541505 0.186856 -0.106758 0.161049 -0.497390 0.188965 0.261941 -0.416025 -0.068887 -0.296032 0.234728 -0.077543 -0.199924 0.039506 -0.127403 -0.167234
like -0.205142 0.040959 0.062514 0.143156 -0.263680 -0.061736 0.226465 -0.083735 -0.015518 -0.057060 0.046928 -0.026123 -0.258922 -0.076542 0.255871 -0.180439 -0.588684 0.165186 0.102955 -0.083704 0.005536 0.022526 -0.102173 0.085829 -0.069086 -0.057205 0.389276 -0.459983 0.036768 -0.066963 -0.026099 -0.337001 -0.044324 0.073573 0.154342 -0.201140 0.127876 -0.701336 0.191798 -0.382643 0.089530 -0.141859 -0.080100 -0.318046 0.030861 -0.111311 0.175381 -0.132119 -0.480037 0.117651 0.022986 0.035141 0.328807 -0.220998 -0.327863 -0.304270 0.139387 -0.184864 -0.121580 0.215214 0.215899 -0.385983 -0.277035 0.246581 0.181704 0.117800 0.081265 -0.037250 -0.136399 -0.131076 -0.153533 0.241646 -0.305596 -0.241565 0.359314 0.090088 -0.059773 0.129686 -0.106717 -0.135869 0.200475 -0.433614 0.261071 0.150870 -0.395345 -0.106087 -0.388448 -0.115439 -0.273857 0.381737 0.130683 -0.192949 -0.242848 0.335979 -0.162122 0.107963 -0.052223 0.603170 0.134039 -0.033376
did -0.103581 0.091969 -0.212418 0.143248 0.054075 -0.112752 -0.235738 0.133531 -0.144443 -0.123811 0.164820 0.057773 0.094872 -0.095388 -0.056911 -0.204476 0.620664 0.207013 0.089138 0.039668 -0.462705 -0.117428 -0.089219 -0.141116 0.003356 0.169355 -0.152812 -0.076049 -0.191087 -0.451023 -0.005265 -0.237305 -0.105976 0.045461 -0.067954 0.285602 0.138847 -0.503196 -0.172428 0.195636 0.332206 -0.056712 0.553099 -0.285660 0.298704 -1.610625 -0.202401 -0.037030 -0.088471 -0.979400 -0.085977 -0.285613 0.027445 -0.541399 -0.470925 -0.108167 0.182376 -0.005529 0.192532 0.232041 0.258069 0.811927 0.296416 0.347380 0.334307 -0.816081 0.187243 0.202736 -0.291607 -0.214458 -0.206442 -0.056980 -0.331055 -0.782820 0.519744 -0.132334 -0.375963 0.153072 -0.109929 -0.195980 0.007371 -0.084884 -0.104167 0.148806 0.334345 -0.203370 0.022250 -0.077502 0.331299 -0.059478 0.010299 -0.198446 -0.190757 0.228769 -0.261713 0.168215 0.097164 0.065058 0.230034 0.249742
time -0.232304 -0.150592 -0.178381 0.250268 -0.268631 0.154002 0.689881 0.039653 -0.210010 0.003056 0.188104 0.385123 0.098259 0.241516 0.506428 0.086155 0.017631 0.536182 0.062114 -0.120212 -0.305143 0.055449 0.141917 -0.254458 0.268641 0.384217 0.262484 -0.109294 -0.246735 -0.083004 0.064034 0.236391 -0.090783 0.105730 -0.153166 -0.550043 0.117319 -0.801728 0.080636 0.125360 -0.155886 0.026108 -0.103084 0.217087 0.240762 0.065903 -0.229745 0.100218 0.087217 0.282308 -0.196104 0.315533 -0.403916 0.263513 0.289994 0.090186 -0.085145 0.277671 -0.147290 0.040066 0.325374 0.600450 0.186529 -0.990090 0.003915 -0.153347 0.342865 -0.499597 -0.061021 0.005559 -0.422472 -0.222508 0.327739 -0.059549 0.026326 -0.403353 0.382401 0.409707 0.436208 -0.041397 -0.225045 -0.066177 -0.331562 -0.542844 0.420702 -0.228179 -0.402631 0.333563 0.336106 -0.262562 -0.010842 -0.144416 0.189536 -0.116059 0.432610 0.077652 -0.295208 0.243343 -0.273376 0.331650
its -0.022398 -0.250063 -0.016392 -0.091456 -0.056630 0.110233 0.048134 -0.110866 -0.132747 -0.063493 0.017422 -0.277064 -0.022176 -0.153450 0.338321 0.198275 -0.060091 0.052069 0.238287 0.001201 -0.190564 -0.094409 -0.215031 0.011387 0.146289 0.164962 -0.132692 -0.159493 -0.267063 0.168273 -0.210802 0.155039 -0.109903 0.036924 0.428851 -0.104753 0.082101 1.298872 0.251366 -0.119805 -0.136279 0.095906 -0.127132 0.008962 0.036648 0.060356 -0.126847 0.262648 0.066995 -0.075710 -0.180036 0.203284 0.091257 -0.314591 0.152279 -0.005450 -0.020676 -0.210658 -0.380194 -0.111322 0.190408 0.480656 -0.169790 0.309377 0.072084 0.197632 0.120718 0.091875 0.070170 -0.208593 0.301627 -0.061872 -0.246827 -0.040700 -0.068541 -0.015680 -0.133325 -0.223613 0.197611 -0.265716 0.079349 0.194449 -0.160142 -0.155242 -0.063128 0.022667 -0.040886 0.370247 0.050990 -0.052749 0.338735 -0.319017 -0.269124 -0.151087 0.101997 0.090282 -0.101101 0.426153 0.134441 -0.053648
than -0.120163 0.088087 0.429804 0.044795 0.214994 -0.122209 -0.197410 0.037079 0.358184 -0.270155 -0.664562 -0.082118 0.148509 0.155290 -0.299885 -0.300579 -0.225476 0.348184 -0.235078 -0.438675 -0.269265 -0.120897 0.266923 0.441188 0.000247 -0.129102 0.110752 0.096922 0.136273 -0.209605 0.036028 0.036013 -0.078615 0.038039 0.269747 -0.466279 -0.099817 -0.329585 0.034476 -0.352761 -0.023885 -0.351248 -0.012857 0.223052 -0.426315 -0.061971 -0.058030 0.240005 -0.211731 0.497559 -0.461019 0.065880 0.404048 -0.189198 0.320294 -0.015323 0.162467 -0.110873 0.009138 0.197991 0.925988 -0.250003 -0.083231 -0.049471 0.159505 0.196080 -0.225334 -0.221553 -0.728403 0.275689 -0.082455 0.090408 -0.051455 0.048126 -0.047349 0.034804 -0.285384 0.083574 0.468967 -0.400747 -0.025970 -0.103148 0.195209 0.320155 0.323553 0.264026 -0.319048 -0.300904 0.022065 0.201445 -0.408377 -0.092298 -0.548589 -0.241042 0.162704 -0.372354 0.025739 0.259691 -0.224295 -0.130274
other -0.410868 0.137655 -0.024553 -0.327273 -0.142671 0.253214 0.270552 -0.382685 -0.035853 -0.409199 0.150058 -0.276983 0.230047 -0.503815 0.059615 0.101014 -0.311723 -0.449756 -0.057728 0.250393 -0.014755 0.028677 0.140416 -0.648740 -0.011660 0.174708 -0.094788 0.439005 0.182972 0.012307 0.373083 0.255597 -0.135600 -0.012246 -0.317133 -0.470840 0.074551 -0.155824 0.279618 -0.032819 0.036035 0.411003 0.428776 0.317070 0.061158 -0.149537 -0.179975 -0.379989 0.070385 -0.166055 -0.182792 0.052383 0.275805 -0.049643 0.602095 0.141916 -0.717819 0.170019 -0.012237 0.178841 -0.225415 0.554089 -0.092851 0.054678 -0.080976 0.062672 -0.218124 0.629558 -0.069916 -0.220737 0.259728 0.304250 0.208417 -0.094572 -0.151046 0.081735 0.360452 -0.173752 -0.084003 0.496022 0.269006 0.152493 -0.075897 -0.620798 -0.060324 -0.144776 -0.069180 -0.126014 0.060884 -0.014526 0.001007 0.050641 -0.352773 -0.371718 0.283946 0.537365 0.200337 -0.415909 0.052717 0.001863
before 0.123191 -0.047170 0.396332 -0.123010 0.014278 -0.054617 -0.143288 0.125794 0.262243 0.091772 -0.066593 -0.112091 -0.041679 -0.095687 0.202055 0.244544 -0.306344 0.059557 0.073874 0.218821 -0.171965 -0.056020 0.289088 -0.369729 0.176225 -0.066167 0.306924 0.232559 0.273551 -0.086685 -0.321709 -0.070936 0.118553 0.204577 0.042937 0.551300 -0.142407 -0.590944 0.463271 -0.475251 0.311220 0.069238 0.021877 -0.098870 0.402094 -0.015780 -0.281994 0.102882 -0.058323 0.473578 -0.456639 -0.300848 0.233754 -0.017632 -0.312330 -0.188899 0.037962 0.153751 -0.036834 0.297037 -0.267480 0.092092 0.355996 0.369192 0.121579 0.032712 -0.041664 -0.229088 0.146239 -0.084026 0.016996 -0.096313 0.103102 0.051977 -0.172699 -0.193716 -0.147925 -0.068623 -0.118598 -0.059989 -0.054197 0.039356 0.154873 0.532756 0.411564 0.404922 0.282551 -0.031423 -0.207803 0.008710 -0.096303 -0.003413 0.311876 -0.029048 -0.136921 -0.198764 0.136414 -0.401699 0.366306 0.212321
about -0.270226 -0.047319 0.195810 0.189773 -0.233891 -0.022872 0.234637 -0.052997 0.089394 0.046921 -0.048946 -0.201788 0.089257 -0.356692 0.234138 -0.314657 -0.180072 0.214168 0.035973 0.000435 -0.483622 0.084532 0.026667 -0.029082 -0.355149 0.112084 0.120142 -0.169514 -0.249175 -0.033938 0.267270 0.114435 0.127945 0.391575 0.192900 0.371566 -0.115420 -0.547316 -0.292979 -0.029250 0.424674 0.270766 -0.366674 0.384156 -0.402705 -0.147470 -0.041220 -0.193221 0.412872 0.378910 -0.646473 0.025982 0.335456 0.147682 0.388139 0.509803 -0.286629 0.053611 -0.414105 0.203708 0.253301 -0.452472 -0.074505 0.510747 0.229473 0.160825 0.024688 0.209501 0.068749 0.245845 -0.014647 0.064750 0.273649 0.147391 -0.103737 0.291290 -0.735150 -0.366760 0.215035 -0.290624 0.239313 0.080965 -0.136567 0.251602 -0.535722 -0.035522 -0.140554 -0.400246 0.164785 -0.049201 0.056556 -0.112128 0.060146 0.116063 -0.004415 -0.238132 -0.150861 -0.525799 -0.296363 0.122123
see 0.143792 -0.316211 0.233496 -0.248482 0.133831 -0.008949 -0.104224 -0.365735 -0.122955 0.045218 0.032861 0.238688 0.327778 0.051436 0.253740 -0.073662 -0.532882 0.410688 -0.075154 -0.176765 0.509766 -0.211677 0.047459 0.004219 -0.175879 -0.353736 0.084515 -0.178014 0.134517 0.083653 0.203598 0.340094 -0.111561 -0.401013 -0.039132 -0.037112 0.145433 -0.667440 0.173024 -0.062955 0.126556 -0.080003 0.553012 0.147546 0.036592 -0.513104 -0.285151 -0.259059 -0.188131 0.328419 0.117597 0.444303 0.325087 -0.247002 -0.354652 0.138321 0.399082 0.209186 0.298577 -0.094460 0.015077 -0.481202 -0.271132 -0.540568 0.203107 0.396280 -0.020512 0.135440 -0.028917 0.118232 0.338168 -0.094994 -0.256946 -0.081357 -0.157361 0.233258 -0.308202 0.224839 -0.268526 -0.101671 0.045836 0.272455 -0.163868 -0.283776 0.444880 0.128849 0.076578 0.299387 0.106113 0.132317 0.576416 -0.031793 0.091413 0.078280 -0.563586 -0.065336 0.047552 -0.175074 0.144837 -0.131132
such -0.351484 -0.344942 0.128431 -0.291988 -0.124527 -0.071284 -0.135568 0.036405 0.179870 0.182089 -0.182239 0.144920 -0.086871 0.546257 -0.028591 0.193507 0.055697 -0.035606 0.266370 0.289974 0.174835 0.101716 0.081914 -0.064226 0.041352 0.342097 0.132147 0.035744 -0.108824 0.454797 -0.336261 0.237540 0.253638 -0.051997 0.053419 -0.547783 0.357361 0.368377 -0.012627 -0.191400 0.245474 0.018548 -0.060209 -0.023986 0.245647 -0.043235 -0.052246 0.155421 -0.125489 -0.206901 -0.557703 -0.363835 -0.220114 -0.089141 0.229599 0.425216 0.106836 -0.148220 -0.043468 -0.147079 -0.539195 0.260255 -0.402016 -0.158335 0.286944 0.477901 -0.350830 -0.025476 0.118722 -0.162658 0.147214 -0.135375 -0.025940 -0.110633 0.081319 -0.089548 0.355489 -0.363853 -0.258920 -0.072281 0.203320 0.079489 0.115245 -0.021663 -0.680854 -0.056502 0.015014 -0.175181 -0.195953 0.299035 -0.260414 -0.027801 0.079028 0.115668 -0.046388 -0.024911 0.178106 0.806762 -0.208640 -0.074450
must -0.042140 -0.201229 -0.071550 0.018350 0.001063 0.163304 0.155941 0.209846 0.210132 0.097521 0.656225 -0.003961 -0.479052 -0.091341 -0.197269 -0.111215 0.457037 0.048330 0.006735 -0.150331 0.008943 0.284196 0.283697 0.085427 -0.198679 -0.004301 0.207993 -0.100906 0.344393 -1.114703 -0.016833 0.239367 0.355251 -0.128800 -0.364607 -0.035000 0.229649 -0.639289 0.219207 0.018204 -0.031511 0.410558 -0.213107 -0.005559 0.130302 -1.203989 -0.063114 -0.117064 -0.236680 0.023241 -0.215555 -0.109286 0.090024 -0.076229 0.128895 -0.153762 0.086500 -0.375850 -0.129860 -0.151947 0.305884 0.586451 -0.306759 0.630291 -0.311613 -0.965579 0.358840 -0.239714 0.088632 0.011378 -0.220859 -0.261474 -0.397079 0.237764 -0.058211 0.052969 0.338925 -0.036831 -0.282308 0.078259 -0.127900 -0.262388 -0.012545 0.364600 -0.375594 0.432557 -0.169034 0.327888 -0.033436 0.193142 -0.094070 0.169489 0.197157 -0.060765 -0.175911 0.047693 0.495019 0.097016 0.369337 0.121677
know 0.244786 0.061275 -0.402724 0.246662 -0.104424 -0.158139 0.079035 -0.393604 -0.494924 -0.269597 -0.320358 0.148526 0.072604 -0.009393 0.442418 0.316876 -0.470189 0.249141 -0.045916 0.191603 0.067040 -0.068186 -0.338321 -0.011327 -0.099038 -0.413241 0.302861 -0.549959 0.117246 -0.047494 0.050638 -0.118536 0.289628 -0.077740 0.165328 -0.475838 -0.040037 -0.541133 0.004560 0.235397 0.078182 -0.531918 0.909848 -0.179605 0.040592 -0.938799 -0.540935 -0.046801 -0.316167 0.264137 0.019054 0.329776 0.333921 0.021216 0.200909 -0.191765 0.569519 0.107310 -0.268967 0.348031 0.050872 -0.645754 0.183622 -0.649162 -0.110790 -0.296368 0.127552 -0.030169 -0.213945 -0.202973 0.387917 0.198221 -0.314596 -0.283278 0.041713 0.255477 0.176356 0.606929 -0.431627 -0.250879 0.061361 0.038494 -0.173370 -0.208816 0.005287 -0.036473 0.183624 0.211942 0.423920 0.418963 0.101823 0.149594 -0.220958 0.028319 -0.499653 -0.128334 -0.149740 -0.340710 -0.109640 -0.119209
should 0.114110 0.091085 0.243091 0.094051 0.107809 -0.237154 -0.304651 0.287759 0.073464 -0.211846 0.247764 0.103898 -0.200209 0.127253 -0.119105 -0.019070 0.473311 0.169355 -0.101263 -0.269910 0.083231 -0.235347 0.102985 0.043921 0.100873 0.026891 0.068121 0.418248 0.055680 -1.127991 0.105258 0.040073 0.211152 0.148834 -0.281554 -0.109654 0.072161 -0.416504 0.109254 -0.094076 0.045484 0.053272 -0.052318 -0.061393 0.130724 -1.274597 0.110910 0.070376 0.020171 0.098962 0.061575 -0.251149 0.196558 -0.265337 0.333355 -0.101031 0.138955 0.185604 -0.068354 0.007519 -0.184998 0.678260 -0.287038 0.548152 0.040608 -0.989242 0.118228 0.281265 -0.109209 0.038648 -0.012405 0.073432 -0.473473 0.132046 -0.176824 0.267111 0.023474 0.194719 -0.179443 0.159318 -0.023544 -0.121031 -0.181886 0.240820 0.170782 -0.124773 -0.087778 -0.390800 -0.036138 0.529127 -0.100211 0.200278 0.248163 0.032478 -0.154689 -0.041883 0.404755 -0.019770 0.095337 0.265079
may 0.052092 -0.213675 -0.227169 0.181812 0.124236 0.109182 0.066327 0.168853 0.234533 -0.127336 0.292054 0.039430 -0.450242 0.163811 0.015923 -0.060243 0.362513 -0.015373 0.087531 0.021944 -0.009771 -0.020716 0.094081 0.087438 -0.249519 -0.274151 0.545436 0.214375 -0.254418 -1.091175 -0.098461 0.229982 -0.030341 0.084777 0.257392 -0.108326 0.097769 -0.265060 0.057439 0.041885 -0.226551 -0.109483 -0.140481 -0.333282 -0.282134 -1.259229 0.116858 0.089724 -0.076131 -0.234207 0.045749 -0.250886 0.318926 0.017210 0.168264 -0.124233 0.240103 0.139096 0.090321 0.019558 -0.212473 0.343559 -0.219150 0.731329 0.067671 -0.841659 0.080547 0.271723 -0.043852 0.039294 -0.138021 0.030269 -0.191568 -0.083076 -0.361929 -0.139095 0.259595 0.245446 -0.140423 0.072860 0.191560 -0.018616 -0.173939 0.304128 -0.303045 0.233601 -0.080104 -0.010998 -0.107093 0.286862 -0.078061 0.209608 0.032944 -0.400961 0.006690 -0.232416 0.015292 0.075777 0.169214 -0.003375
how -0.148257 -0.353750 -0.043967 0.140678 0.361047 0.101985 -0.012436 0.319995 0.071666 0.289099 -0.413069 0.147000 -0.067202 0.532484 0.032105 0.251832 -0.214694 -0.028246 -0.056327 -0.044505 -0.349593 0.037333 0.364870 0.158439 -0.101352 -0.238100 -0.017281 0.048251 0.005655 -0.012463 0.129704 -0.217063 -0.215128 0.010734 0.344303 0.030831 0.029060 -0.104124 0.151226 -0.307313 0.348284 -0.074532 -0.064738 -0.128433 -0.177780 -0.161869 -0.085656 -0.139487 0.290390 -0.142651 0.006422 0.949072 0.449828 -0.220343 -0.677936 0.243867 0.122108 0.194657 -0.123557 0.300253 0.297938 0.075506 0.146465 -0.332927 -0.107328 0.574644 0.778682 0.432152 0.247500 0.087309 0.174560 -0.062858 0.069974 0.283206 0.313472 -0.197511 0.190279 -0.606888 -0.011416 -0.030900 -0.079781 -0.037272 -0.027823 0.249714 -0.206743 0.328358 -0.187764 0.312413 0.180282 0.000816 -0.135752 0.067917 0.059743 -0.611282 0.136483 0.178386 0.332420 -0.339645 0.231687 0.091347
well -0.021014 0.411958 0.098242 0.098058 0.023317 0.434627 -0.226378 0.056613 0.211338 0.004378 0.219950 -0.084708 0.274620 -0.670739 0.249298 0.315108 -0.063770 0.206800 0.026975 0.081404 -0.181074 0.136756 0.076308 0.154620 -0.101565 -0.013161 0.447159 0.029513 -0.491997 -0.346914 -0.217497 -0.032435 0.093482 0.174712 0.093965 -0.094025 -0.233538 -0.079960 0.064742 0.582652 0.163207 0.263990 0.307500 -0.009529 -0.270455 0.007683 0.227318 -0.013546 0.169615 0.028592 0.014349 0.257193 -0.099709 0.117878 -0.056155 0.635343 -0.046243 -0.519167 0.179610 -0.481398 -0.322422 0.129153 0.062680 -0.339482 -0.312680 0.032422 0.286643 0.332306 0.063046 0.488301 -0.188096 0.166205 0.443139 0.009138 -0.268558 0.241130 -0.056490 -0.086894 0.740242 0.621105 0.041295 0.021621 -0.057230 0.273765 -0.398203 0.293157 0.071761 -0.283932 0.014559 0.067711 0.091959 0.436506 0.088030 0.254020 0.152752 0.083467 -0.057603 0.044601 0.125470 0.293957
our -0.194765 -0.067892 -0.280419 -0.242697 0.081631 -0.290849 -0.092444 0.235429 0.153307 0.054658 -0.185750 0.314695 0.049059 0.262218 0.210823 -0.252902 -0.436291 -0.029890 0.313314 0.131252 0.174999 0.040064 -0.351324 0.048804 -0.039294 -0.312150 0.076371 -0.161207 0.366198 -0.037525 -0.390710 0.174435 0.317490 -0.161261 -0.211954 -0.458092 0.094163 1.269184 -0.372134 -0.095011 -0.383242 0.002838 0.046004 -0.079405 0.036020 -0.237575 -0.159704 0.042371 -0.325796 -0.057731 0.091982 -0.316299 0.050582 -0.549685 -0.265954 -0.061372 -0.253913 0.056799 -0.120146 -0.200826 -0.255806 0.115348 -0.211384 0.347316 0.210254 -0.023650 0.235708 -0.264952 0.006834 0.017832 0.224333 0.094583 0.179726 0.245407 -0.139770 -0.044874 0.117604 -0.076654 0.324128 0.276378 0.163415 -0.026979 -0.001652 -0.086314 -0.208736 -0.242869 0.136686 0.191461 0.154733 0.086176 0.026040 0.122905 0.104753 0.049059 -0.157381 -0.074665 -0.155319 0.069636 0.086463 0.076252
can -0.252833 0.226013 0.128010 -0.015019 0.065325 -0.194294 0.204945 -0.151383 0.148089 -0.162381 0.191460 -0.150209 -0.429753 0.582780 0.138608 0.002526 0.094637 -0.291482 -0.074012 0.383918 0.016408 0.059340 -0.152803 -0.277758 -0.343763 0.052251 0.128052 0.076576 -0.093106 -1.184012 -0.040177 -0.013847 -0.121120 0.187688 -0.189357 -0.207924 0.002268 -0.192822 0.092818 0.270515 -0.196297 0.107494 -0.132863 0.349063 0.311130 -1.359930 0.103961 -0.059507 0.233945 -0.211328 0.059428 0.045108 -0.459333 0.058446 0.406938 0.007087 0.228723 -0.344334 0.126138 -0.149889 -0.148859 0.354507 0.148753 0.432332 0.280856 -0.788337 -0.480503 -0.117494 0.176157 0.087488 0.242776 0.316194 -0.330548 0.306798 -0.169785 -0.111927 0.428957 0.255562 -0.416498 -0.114175 0.212835 -0.190642 0.185421 0.268948 -0.053548 -0.103618 -0.209011 -0.191506 0.620453 -0.051067 -0.135553 -0.104035 0.066077 -0.242871 0.127171 -0.173766 -0.056141 0.341054 0.355868 -0.420713
little 0.108174 0.300376 0.239709 0.265551 -0.641266 -0.239118 0.185865 -0.311520 0.244445 0.066142 -0.252356 0.120362 -0.191692 -0.015180 0.441423 -0.116548 0.167266 -0.077923 0.005846 0.158535 0.089416 0.205156 0.188061 0.179299 0.271470 -0.214307 0.030497 -0.098351 -0.358046 0.281323 0.050553 -0.147042 -0.152706 -0.287395 -0.441816 -0.166903 0.281661 -0.139768 -0.129136 0.046195 0.261706 0.055121 -0.575596 0.151649 0.145038 0.434079 -0.123893 0.117608 0.042100 -0.226488 0.143147 0.242835 0.221671 0.156511 0.367305 0.406442 0.098496 -0.369857 0.041777 0.011575 0.149297 -0.034932 -0.281342 -0.191522 -0.423478 -0.033747 -0.236253 -0.298352 0.124916 -0.355040 0.071680 0.399862 0.035183 -0.237433 0.120409 -0.348646 0.208784 0.151017 0.074405 0.158781 0.015259 -0.016822 -0.291723 -0.196902 -0.423297 -0.506804 -0.014998 0.233613 0.042922 0.045172 0.022666 -0.083204 -0.077271 0.593364 0.244367 -0.004470 -0.086685 0.288245 0.417609 -0.222751
am -0.023451 0.056157 0.215748 0.048601 -0.366741 -0.583755 0.022742 0.518493 0.200562 0.123978 -0.151326 -0.032131 0.251527 0.080484 0.245866 0.094348 0.162051 -0.026431 -0.209228 0.067922 0.392581 0.353455 -0.368767 0.120051 0.120002 -0.234557 -0.110564 -0.087517 0.395867 0.000029 -0.058441 0.129610 -0.020084 0.433500 -0.224957 -0.500229 0.001260 -0.323284 0.016379 0.028529 0.590721 -0.010265 -0.023860 -0.145088 0.196588 -0.942168 0.178348 -0.121103 -0.190455 0.641169 0.128443 0.274673 -0.154674 -0.670736 0.043580 -0.478592 1.423219 -0.459665 0.266202 -0.147327 -0.059211 0.139555 0.108685 -0.388253 -0.047503 -0.826077 0.186216 0.301274 -0.301670 -0.364620 0.232350 -0.011697 -0.001123 -0.081675 -0.603138 -0.082561 -0.014199 0.576893 -0.018402 -0.289263 -0.433936 0.002108 -0.132357 -0.651087 -0.092457 0.330858 0.446297 0.066979 -0.591083 0.192732 0.554496 0.388044 0.043802 0.288657 0.257425 0.708830 0.343256 -0.019100 0.114436 -0.436348
these -0.003483 -0.484071 0.016034 0.228045 -0.345226 0.196062 0.016464 -0.166214 -0.257508 -0.139440 -0.146669 0.229292 0.234281 -0.060953 -0.064491 -0.241228 -0.344482 -0.296050 0.095603 0.098288 -0.281239 0.240848 -0.019999 -0.096511 -0.001646 -0.072980 -0.149836 0.238015 -0.194719 -0.516629 -0.181606 -0.077971 0.514087 0.037619 0.422264 -0.360538 0.264459 0.778821 0.154841 0.116599 0.374756 0.000243 0.248227 0.106317 -0.045369 -0.007863 0.045940 -0.104628 0.288300 -0.174111 -0.397849 -0.054496 0.049082 -0.151864 0.204160 0.177085 -0.218016 -0.074577 -0.429108 -0.565385 -0.425810 -0.290031 0.659486 0.190753 0.020645 0.033776 -0.095454 -0.066413 -0.252223 -0.229640 -0.172406 0.372406 0.135087 -0.512529 0.295237 -0.027219 -0.265243 0.071935 0.252678 0.278402 0.027850 0.273079 -0.015922 -0.375395 -0.127369 0.168631 -0.063972 -0.062823 -0.102243 0.186914 -0.262708 0.078228 -0.160260 -0.118515 -0.090281 0.323658 0.166865 0.372650 -0.356587 -0.008928
upon -0.019158 -0.019628 0.016304 -0.489601 0.031118 0.057521 0.542620 -0.081923 -0.034561 -0.084633 0.062365 0.159496 -0.235936 -0.107578 -0.075881 -0.037232 -0.527308 0.236123 0.288386 -0.188108 0.076497 0.058850 0.210233 -0.015144 0.118666 0.148377 0.145610 0.161340 -0.065428 -0.144639 -0.076523 -0.039965 0.122733 0.113038 0.036887 0.767770 0.269382 -0.693372 0.050841 -0.158769 -0.049970 0.149493 -0.133128 0.139950 -0.266699 -0.040257 0.465007 0.140324 -0.386320 0.336655 -0.022122 0.126965 0.292147 0.316515 -0.151468 -0.241790 0.099751 -0.469216 0.087274 0.110909 -0.244332 -0.070227 0.145432 0.829935 0.146358 0.250319 -0.280106 0.123505 -0.239842 -0.036082 -0.161961 0.225543 0.069999 -0.331616 0.110424 0.238826 -0.373601 0.222265 0.047214 0.009679 -0.104490 -0.012512 -0.312428 0.225565 -0.064471 -0.001858 -0.056039 -0.160177 0.176704 -0.226414 -0.198812 0.346973 0.257065 0.046991 0.073808 -0.075543 0.067074 0.128702 0.325033 0.363849
down -0.137692 0.276585 -0.157584 -0.141035 0.154238 -0.163945 0.100738 0.442970 -0.327680 -0.483601 -0.128279 -0.123530 0.039811 -0.392238 0.193413 0.157802 -0.735805 -0.044708 0.078345 -0.217834 -0.507767 0.064710 -0.130689 -0.475482 0.378154 0.074286 0.258336 0.402252 0.265309 -0.073855 -0.223859 0.178483 0.159401 -0.189276 0.117590 0.882675 0.236270 -0.417538 -0.038701 0.141441 0.046212 -0.105439 -0.975845 0.179434 0.213032 0.000336 0.042324 0.040194 0.102926 0.319395 0.365485 0.117835 0.246453 0.352823 -0.180333 0.023386 0.088786 -0.302691 0.049172 0.199751 -0.186758 -0.126679 0.156089 -0.093580 0.133345 -0.266710 -0.608200 -0.040022 0.443260 -0.340649 -0.064129 -0.152582 -0.058156 -0.303759 -0.449601 0.187427 0.186061 -0.335272 -0.179231 -0.088991 0.291247 -0.178632 -0.383878 -0.358258 -0.326738 0.103456 -0.148099 -0.143759 0.145252 0.308501 0.144481 0.153901 -0.062081 0.204710 -0.097748 -0.536187 -0.113556 -0.141328 0.113301 -0.174581
two 0.104223 -0.011092 0.140386 0.163171 -0.005118 -0.010202 -0.082172 -0.281388 0.037036 0.073678 0.340616 0.458487 0.157024 -0.089084 -0.197388 -0.195438 -0.007398 -0.072554 0.106768 -0.212256 0.267410 -0.105345 0.203623 -0.339498 0.002040 -0.497175 0.204696 0.034371 0.572293 -0.129810 -0.065642 0.123473 0.019264 -0.215092 -0.128242 -0.100318 0.218272 0.157505 -0.065549 0.212256 0.385954 -0.298606 -0.116751 -0.147159 -0.046842 0.083257 -0.152934 -0.017398 0.043845 -0.271318 -0.015093 -0.459497 0.221018 -0.061468 -0.029832 -0.152314 -0.218356 0.404823 -0.273965 -0.113374 0.228360 0.212005 -0.366690 0.304445 0.153609 0.127789 -0.272523 0.049376 0.024331 0.015407 -0.106081 0.180967 1.186667 0.126938 0.017693 -0.330672 0.184980 -0.146505 -0.213373 0.540871 -0.126445 0.153252 -0.206777 -0.429760 0.265019 0.117875 -0.113360 -0.202671 -0.254176 0.100066 -0.372758 0.228196 -0.280154 -0.036793 0.038066 -0.239484 -0.302673 -0.267320 0.318038 -0.260294
over 0.006116 -0.110753 0.132343 -0.295354 -0.019925 0.238645 0.555209 -0.156067 -0.160223 0.056151 -0.151710 -0.034474 0.084839 -0.274617 0.313240 0.305112 -0.609590 -0.208507 -0.259919 0.056497 -0.012636 -0.006740 -0.307596 -0.270814 -0.006586 0.072461 0.337565 0.147667 -0.231136 -0.017154 0.091776 0.250137 0.038459 0.472998 0.015853 0.724577 -0.033597 -0.574192 -0.156152 -0.206992 -0.062388 0.068303 -0.443738 0.156416 0.029387 0.220974 -0.053585 -0.171390 0.414247 0.335072 0.177541 -0.135946 0.231638 0.220945 -0.315318 -0.289028 0.026121 -0.276383 -0.454167 -0.099328 -0.032898 -0.216651 -0.077148 0.607359 0.120282 -0.060944 0.151489 0.080853 0.099792 -0.229680 0.296342 -0.240061 0.046338 0.250454 0.193953 0.031457 -0.384044 -0.086061 0.443985 -0.037586 0.203305 0.149700 -0.079120 0.070702 -0.264607 0.264138 0.091829 -0.026233 0.161453 0.180246 -0.076466 -0.115969 -0.021587 0.088908 -0.129003 0.024560 0.168479 -0.186623 -0.004395 -0.336023
us 0.007953 -0.089826 0.160530 0.048153 -0.306478 0.136704 0.029144 -0.187990 -0.158405 -0.153774 0.069733 0.009016 0.010373 0.054178 0.071424 0.128338 -0.256873 -0.347017 -0.001918 -0.105394 0.005736 0.077608 0.366692 -0.742968 -0.216100 0.134360 -0.119787 -0.026298 0.119742 -0.462786 -0.167700 0.155845 0.233286 -0.364476 0.371946 -0.238316 0.194737 0.649412 -0.239724 0.794891 -0.325053 0.056795 -0.222232 -0.314206 -0.324771 -0.043903 -0.431071 0.442206 -0.082187 -0.011704 -0.024482 0.129068 -0.166131 -0.623467 0.113588 0.118698 -0.266700 0.163882 -0.042836 -0.230743 -0.053986 -0.065175 -0.005217 -0.331264 -0.097910 -0.015965 0.422498 -0.264230 0.104676 0.269117 -0.047150 0.252468 0.011637 0.183261 -0.184266 -0.132248 0.074579 -0.127087 -0.558407 0.116355 -0.143142 -0.026354 -0.116501 -0.515846 -0.262631 -0.225842 -0.050233 0.204028 -0.049335 -0.268153 0.004927 -0.086353 0.242232 -0.147181 0.265645 -0.070876 -0.181884 0.361076 -0.328307 -0.055598
after -0.100702 -0.275341 0.174331 -0.205642 0.161662 -0.108982 0.177264 0.174521 -0.466535 0.039996 0.007493 -0.163546 0.032842 0.743783 0.479412 0.232078 -0.202045 -0.314920 0.041088 -0.012426 -0.484901 -0.181951 -0.168331 -0.423936 -0.268668 -0.148084 -0.181040 -0.048203 -0.090661 0.172032 -0.080296 -0.103668 -0.170979 0.481592 -0.175496 0.613065 -0.035319 -0.729278 -0.018285 -0.087450 0.285616 0.326258 -0.079666 -0.179319 -0.644322 -0.022600 -0.129991 -0.375114 -0.201286 0.780380 -0.202231 -0.036407 -0.196081 0.041279 0.035680 -0.053302 0.236231 0.358399 -0.408785 0.055077 -0.349150 0.112488 0.204308 0.375504 0.191835 -0.402536 0.210624 -0.142025 0.084183 0.291236 0.055284 -0.114794 0.130299 -0.084458 -0.032838 -0.219429 0.329559 0.203704 0.367618 -0.053405 -0.309357 -0.157469 0.208152 0.366441 0.240900 0.086422 0.153782 -0.077170 -0.633480 0.053985 0.287860 -0.066427 -0.125122 0.077296 -0.011766 -0.368592 0.199191 -0.191142 -0.003668 0.087919
himself 0.178358 0.158909 0.305664 -0.078857 0.402678 -0.291401 0.132581 0.067618 -0.154115 -0.017401 -0.002340 0.042922 0.001357 -0.386856 -0.256865 -0.109090 0.273318 0.100765 -0.060789 0.259960 0.448978 -0.490410 -0.430754 -0.193711 -0.011816 0.350196 -0.402998 0.288529 0.121212 0.146114 -0.333824 -0.069488 -0.078816 -0.093469 0.272158 0.160430 -0.027987 0.317530 0.050712 0.031021 -0.122243 0.288651 -0.646132 0.087961 -0.045154 0.109441 0.101298 0.207861 0.062916 0.039684 -0.084013 0.209331 0.025849 -0.545795 -0.385395 0.304068 -0.174413 0.205446 -0.102266 -0.062728 0.058673 0.235043 -0.071982 -0.662599 0.034352 -0.056971 -0.118532 0.192681 -0.019713 -0.229567 0.029637 0.100045 -0.033467 -0.029146 0.212744 -0.117985 0.270205 -0.289483 -0.272923 0.149701 -0.071036 -0.072012 0.256641 -0.290696 -0.332625 -0.297963 0.028449 0.285685 0.066276 -0.469375 0.220546 0.451614 -0.132350 -0.067146 -0.070273 -0.447608 -0.145077 0.172652 0.215445 0.165580
old 0.097380 -0.336026 0.058398 0.401635 -0.269154 -0.043101 -0.121853 0.130325 0.236308 -0.242965 -0.122241 0.175824 0.115111 -0.321313 0.397788 0.067187 0.208028 -0.552914 -0.393993 0.192238 0.451380 0.007685 0.026549 -0.117421 -0.154952 0.133099 -0.018227 -0.023871 0.261405 0.197788 -0.409803 -0.430980 0.063963 -0.168014 0.207256 0.007377 -0.043791 -0.133541 0.302674 0.291677 -0.006140 0.274461 0.386136 -0.405215 0.204028 0.343284 0.227655 -0.169323 -0.102801 0.777646 0.221706 0.024398 0.272120 0.074975 -0.529965 0.513137 -0.219257 0.037881 0.361123 -0.167917 -0.355815 -0.010760 -0.092717 0.187664 -0.342076 -0.235925 -0.128699 -0.016010 -0.215623 0.020484 -0.200163 -0.079322 0.298765 0.181897 0.037812 -0.073557 0.252879 -0.256486 -0.108207 -0.237981 0.215529 0.029201 0.412474 -0.135526 -0.038613 0.153514 -0.011748 -0.327513 0.038299 0.251537 -0.591208 -0.024330 0.003218 -0.091771 0.069678 -0.275159 0.336238 -0.476138 -0.283666 0.065491
again -0.133875 0.096039 -0.144293 0.138813 0.072738 -0.126874 0.303711 0.050292 -0.017390 0.037180 0.000550 -0.181874 -0.035861 0.288454 0.026589 0.175838 -0.350973 -0.153355 0.087423 -0.028880 -0.041592 -0.334557 -0.093411 0.199594 -0.127110 -0.156999 -0.260391 0.323602 -0.048319 0.108138 -0.107582 -0.021377 -0.274018 -0.184326 -0.034172 0.873585 -0.455767 -0.175174 -0.290303 0.311100 0.011657 -0.075157 -0.098484 0.147606 0.109223 0.060732 0.084603 -0.082946 0.187450 -0.106330 0.007272 0.222026 0.126760 0.005381 -0.315960 -0.285666 -0.039332 -0.116395 -0.077982 0.210551 -0.086999 0.255034 -0.125733 -0.272483 -0.060512 -0.278894 0.098399 -0.144192 0.215215 -0.118937 0.146093 0.124574 0.118202 -0.000558 0.018283 -0.060168 -0.231127 -0.326975 0.044095 0.011612 0.330839 -0.305084 0.444641 0.144179 0.032586 0.161593 0.007181 -0.107985 -0.199380 -0.287995 0.528630 -0.226492 0.042095 -0.026572 0.063120 0.265312 0.296929 -0.215199 0.194405 0.101450
shall 0.071280 -0.069239 0.172242 -0.095014 0.173007 -0.063337 -0.175495 0.233686 -0.047920 0.167189 0.168386 -0.112991 0.069329 0.342514 -0.235021 0.011063 -0.032692 -0.003650 0.161381 0.033044 0.212976 0.100674 -0.048431 0.096476 -0.392519 -0.028041 0.333294 0.298097 0.009797 -1.077108 -0.046215 0.082984 0.121142 0.195640 -0.066197 0.112819 0.180105 -0.431570 -0.179963 0.446954 0.090814 0.027750 0.460388 -0.138011 -0.037881 -1.466154 0.145946 -0.185991 -0.020649 0.092132 0.103447 -0.247208 -0.093711 -0.223863 0.363809 -0.231278 0.456063 -0.147267 0.192665 -0.202309 0.052893 0.418197 -0.175906 0.597302 0.195646 -1.166281 0.575768 -0.181565 0.008599 -0.239772 -0.115465 -0.184084 -0.439449 0.127327 -0.046574 -0.120781 0.337527 0.004205 -0.317292 0.021784 -0.153733 -0.045577 0.001309 0.184305 0.132790 -0.008396 0.023710 0.035982 -0.211375 0.791380 -0.014780 0.412595 -0.021633 -0.264270 0.328955 0.150383 -0.022375 0.152815 0.418479 0.228042
